{"learner":{"attributes":{"scikit_learn":"{\"_estimator_type\": \"classifier\"}"},"feature_names":["up_total_orders","up_order_rate","up_avg_position","up_orders_since_last","up_streak","user_total_orders","user_avg_days_since_prior","user_reorder_ratio","prod_total_purchases","prod_reorder_prob","aisle_id","department_id","order_dow","order_hour_of_day","days_since_prior_order"],"feature_types":["int","float","float","int","int","int","float","float","int","float","int","int","int","int","float"],"gradient_booster":{"model":{"cats":{"enc":[],"feature_segments":[],"sorted_idx":[]},"gbtree_model_param":{"num_parallel_tree":"1","num_trees":"100"},"iteration_indptr":[0,1,2,3,4,5,6,7,8,9,10,11,12,13,14,15,16,17,18,19,20,21,22,23,24,25,26,27,28,29,30,31,32,33,34,35,36,37,38,39,40,41,42,43,44,45,46,47,48,49,50,51,52,53,54,55,56,57,58,59,60,61,62,63,64,65,66,67,68,69,70,71,72,73,74,75,76,77,78,79,80,81,82,83,84,85,86,87,88,89,90,91,92,93,94,95,96,97,98,99,100],"tree_info":[0,0,0,0,0,0,0,0,0,0,0,0,0,0,0,0,0,0,0,0,0,0,0,0,0,0,0,0,0,0,0,0,0,0,0,0,0,0,0,0,0,0,0,0,0,0,0,0,0,0,0,0,0,0,0,0,0,0,0,0,0,0,0,0,0,0,0,0,0,0,0,0,0,0,0,0,0,0,0,0,0,0,0,0,0,0,0,0,0,0,0,0,0,0,0,0,0,0,0,0],"trees":[{"base_weights":[-2.6311245E-4,-3.8901845E-1,2.8497608E0,3.529249E-1,-7.198268E-1,2.1266577E0,5.2888412E0,1.9738553E-1,2.076488E0,-8.405277E-1,-3.4932885E-1,2.8517096E0,8.574431E-1,5.9509225E0,3.4302332E0,-1.7600751E-1,6.557377E-1,3.0797102E0,1.1926924E0,-6.7024195E-1,-9.2859685E-1,-4.5809567E-1,-6.356303E-2,2.5396173E0,4.505755E0,1.2847332E0,2.0567764E-1,5.405879E0,7.3504205E0,3.817719E0,1.1373886E0,-3.18055E-1,3.3542988E-1,1.1760387E0,3.2692847E-1,2.5704095E0,4.6104374E0,8.0429E-1,1.9781617E0,-7.4247545E-1,-3.7578058E-1,-9.8158824E-1,-8.423713E-1,-5.2598166E-1,-1.6845815E-1,5.1131383E-2,-4.6291265E-1,2.0674655E0,3.1061342E0,5.1594677E0,3.1629658E0,8.3651E-1,1.9811666E0,4.7800878E-1,-2.893707E-1,4.7118087E0,5.9411516E0,6.862786E0,8.10197E0,3.0464938E0,4.481051E0,1.6085992E0,9.899618E-2,-6.1086535E-2,-1.361677E-2,8.181003E-3,7.362374E-2,9.477342E-2,1.6700387E-1,1.7407408E-2,1.0511196E-1,1.9067116E-1,3.0374572E-1,3.993947E-1,5.6790966E-1,3.912966E-2,1.1155643E-1,1.7773905E-1,3.0434832E-1,-7.936928E-2,-5.26343E-2,-4.877145E-2,-2.3208236E-2,-1.0008492E-1,-8.8545285E-2,-8.813044E-2,-6.9925375E-2,-6.266245E-2,-4.1081484E-2,-3.7956503E-3,-4.083186E-2,-1.0665756E-2,6.598132E-2,-3.7375905E-2,-7.475287E-2,1.6889125E-1,2.6798293E-1,3.451642E-1,2.5215113E-1,4.667842E-1,6.6445583E-1,2.609237E-1,4.3404976E-1,5.6610692E-2,1.0913014E-1,1.7776136E-1,2.741485E-1,2.0721605E-2,9.15075E-2,-1.10873515E-2,-5.781982E-2,4.3842778E-1,5.220472E-1,5.530538E-1,6.5249866E-1,6.4969033E-1,7.3022884E-1,7.723289E-1,8.6527073E-1,3.2545552E-1,2.0196135E-1,4.9157277E-1,3.275819E-1,8.479131E-2,2.0340101E-1,3.3210468E-2,-4.3950897E-2],"categories":[],"categories_nodes":[],"categories_segments":[],"categories_sizes":[],"default_left":[0,0,0,0,0,0,0,0,0,0,0,0,0,0,0,0,0,0,0,0,0,0,0,0,0,0,0,0,0,0,0,0,0,0,0,0,0,0,0,0,0,0,0,0,0,0,0,0,0,0,0,0,0,0,0,0,0,0,0,0,0,0,0,0,0,0,0,0,0,0,0,0,0,0,0,0,0,0,0,0,0,0,0,0,0,0,0,0,0,0,0,0,0,0,0,0,0,0,0,0,0,0,0,0,0,0,0,0,0,0,0,0,0,0,0,0,0,0,0,0,0,0,0,0,0,0,0],"id":0,"left_children":[1,3,5,7,9,11,13,15,17,19,21,23,25,27,29,31,33,35,37,39,41,43,45,47,49,51,53,55,57,59,61,63,65,67,69,71,73,75,77,79,81,83,85,87,89,91,93,95,97,99,101,103,105,107,109,111,113,115,117,119,121,123,125,-1,-1,-1,-1,-1,-1,-1,-1,-1,-1,-1,-1,-1,-1,-1,-1,-1,-1,-1,-1,-1,-1,-1,-1,-1,-1,-1,-1,-1,-1,-1,-1,-1,-1,-1,-1,-1,-1,-1,-1,-1,-1,-1,-1,-1,-1,-1,-1,-1,-1,-1,-1,-1,-1,-1,-1,-1,-1,-1,-1,-1,-1,-1,-1],"loss_changes":[5.3069256E5,1.0345073E5,1.0138909E5,3.484394E4,1.3036E4,4.0808125E4,1.615675E4,2.0403914E4,9.53525E3,3.296875E3,2.226496E3,1.4558078E4,4.4903643E3,7.3531875E3,3.0655508E3,4.7730444E3,9.155957E3,3.9159023E3,1.743855E3,1.5940586E3,6.613672E2,1.0201035E3,9.046213E2,6.345172E3,3.9151328E3,3.0385693E3,8.6112775E2,2.564875E3,9.3896875E2,1.4982734E3,2.449577E2,2.7383984E3,1.4516891E3,2.335834E3,3.6302903E3,1.1667383E3,8.0514453E2,4.9192212E2,3.9933594E2,6.65875E2,2.3741699E2,1.6530469E2,3.0679297E2,4.8693848E2,3.0841833E2,1.4737573E3,1.1153821E2,2.9985156E3,2.1712578E3,2.1671172E3,9.465498E2,4.0775732E2,5.852461E2,4.8746735E2,1.1681297E2,4.841953E2,9.07625E2,2.1828906E2,1.5473438E2,2.860664E2,8.1515625E2,1.0976312E2,1.9908676E1,0E0,0E0,0E0,0E0,0E0,0E0,0E0,0E0,0E0,0E0,0E0,0E0,0E0,0E0,0E0,0E0,0E0,0E0,0E0,0E0,0E0,0E0,0E0,0E0,0E0,0E0,0E0,0E0,0E0,0E0,0E0,0E0,0E0,0E0,0E0,0E0,0E0,0E0,0E0,0E0,0E0,0E0,0E0,0E0,0E0,0E0,0E0,0E0,0E0,0E0,0E0,0E0,0E0,0E0,0E0,0E0,0E0,0E0,0E0,0E0,0E0,0E0,0E0,0E0],"parents":[2147483647,0,0,1,1,2,2,3,3,4,4,5,5,6,6,7,7,8,8,9,9,10,10,11,11,12,12,13,13,14,14,15,15,16,16,17,17,18,18,19,19,20,20,21,21,22,22,23,23,24,24,25,25,26,26,27,27,28,28,29,29,30,30,31,31,32,32,33,33,34,34,35,35,36,36,37,37,38,38,39,39,40,40,41,41,42,42,43,43,44,44,45,45,46,46,47,47,48,48,49,49,50,50,51,51,52,52,53,53,54,54,55,55,56,56,57,57,58,58,59,59,60,60,61,61,62,62],"right_children":[2,4,6,8,10,12,14,16,18,20,22,24,26,28,30,32,34,36,38,40,42,44,46,48,50,52,54,56,58,60,62,64,66,68,70,72,74,76,78,80,82,84,86,88,90,92,94,96,98,100,102,104,106,108,110,112,114,116,118,120,122,124,126,-1,-1,-1,-1,-1,-1,-1,-1,-1,-1,-1,-1,-1,-1,-1,-1,-1,-1,-1,-1,-1,-1,-1,-1,-1,-1,-1,-1,-1,-1,-1,-1,-1,-1,-1,-1,-1,-1,-1,-1,-1,-1,-1,-1,-1,-1,-1,-1,-1,-1,-1,-1,-1,-1,-1,-1,-1,-1,-1,-1,-1,-1,-1,-1],"split_conditions":[2.647059E-1,4E0,5.4545456E-1,2E0,1.0344828E-1,3E0,2E0,5.744854E-1,2E0,1E1,1.724138E-1,3E0,5E0,5E0,4E0,2E0,2E0,3E0,4E0,2E0,4.5454547E-2,2.7226E4,9E0,6.426784E-1,2E0,5E0,8E0,6.4285713E-1,8E0,7E0,6E0,4.007874E-1,1.6E-1,6.9446546E-1,3E0,5.828202E-1,4E0,5.672504E-1,4E0,1.6535E4,5.843859E-1,1.742E4,1.7789E4,2E0,8E0,5E0,1.7E1,4E0,2E0,5E0,8E0,6.068571E-1,1.4E1,7E0,1.2E1,6.972211E-1,7.084536E-1,7.0111954E-1,1.2E1,3E0,3E0,1.6E1,9E0,-6.1086535E-2,-1.361677E-2,8.181003E-3,7.362374E-2,9.477342E-2,1.6700387E-1,1.7407408E-2,1.0511196E-1,1.9067116E-1,3.0374572E-1,3.993947E-1,5.6790966E-1,3.912966E-2,1.1155643E-1,1.7773905E-1,3.0434832E-1,-7.936928E-2,-5.26343E-2,-4.877145E-2,-2.3208236E-2,-1.0008492E-1,-8.8545285E-2,-8.813044E-2,-6.9925375E-2,-6.266245E-2,-4.1081484E-2,-3.7956503E-3,-4.083186E-2,-1.0665756E-2,6.598132E-2,-3.7375905E-2,-7.475287E-2,1.6889125E-1,2.6798293E-1,3.451642E-1,2.5215113E-1,4.667842E-1,6.6445583E-1,2.609237E-1,4.3404976E-1,5.6610692E-2,1.0913014E-1,1.7776136E-1,2.741485E-1,2.0721605E-2,9.15075E-2,-1.10873515E-2,-5.781982E-2,4.3842778E-1,5.220472E-1,5.530538E-1,6.5249866E-1,6.4969033E-1,7.3022884E-1,7.723289E-1,8.6527073E-1,3.2545552E-1,2.0196135E-1,4.9157277E-1,3.275819E-1,8.479131E-2,2.0340101E-1,3.3210468E-2,-4.3950897E-2],"split_indices":[1,3,1,4,1,3,3,9,3,3,1,4,3,4,3,0,3,4,0,0,1,8,3,9,3,0,3,1,4,0,3,9,1,9,0,9,4,9,4,8,9,8,8,0,3,0,3,0,3,4,0,9,0,0,3,9,9,9,4,3,3,5,3,0,0,0,0,0,0,0,0,0,0,0,0,0,0,0,0,0,0,0,0,0,0,0,0,0,0,0,0,0,0,0,0,0,0,0,0,0,0,0,0,0,0,0,0,0,0,0,0,0,0,0,0,0,0,0,0,0,0,0,0,0,0,0,0],"split_type":[0,0,0,0,0,0,0,0,0,0,0,0,0,0,0,0,0,0,0,0,0,0,0,0,0,0,0,0,0,0,0,0,0,0,0,0,0,0,0,0,0,0,0,0,0,0,0,0,0,0,0,0,0,0,0,0,0,0,0,0,0,0,0,0,0,0,0,0,0,0,0,0,0,0,0,0,0,0,0,0,0,0,0,0,0,0,0,0,0,0,0,0,0,0,0,0,0,0,0,0,0,0,0,0,0,0,0,0,0,0,0,0,0,0,0,0,0,0,0,0,0,0,0,0,0,0,0],"sum_hessian":[4.7897888E5,4.214871E5,5.749176E4,1.2997549E5,2.9151162E5,4.4346445E4,1.3145317E4,1.1921802E5,1.0757468E4,2.1987833E5,7.163327E4,2.8222697E4,1.6123748E4,9.690961E3,3.454357E3,6.569815E4,5.3519875E4,5.0371587E3,5.7203096E3,7.495602E4,1.4492231E5,5.1884605E4,1.9748672E4,2.3744938E4,4.477759E3,9.738395E3,6.385353E3,6.978142E3,2.7128188E3,2.954404E3,4.9995294E2,5.1417688E4,1.4280458E4,2.0724021E4,3.279585E4,3.7816228E3,1.2555355E3,3.8289683E3,1.8913414E3,6.0189566E4,1.4766455E4,8.975277E4,5.5169543E4,4.2032176E4,9.85243E3,1.534299E4,4.4056807E3,1.295364E4,1.0791299E4,3.009699E3,1.4680597E3,5.9263857E3,3.8120088E3,4.119312E3,2.2660413E3,3.0426465E3,3.9354954E3,1.6514347E3,1.0613842E3,1.3686875E3,1.5857164E3,3.4351892E2,1.5643404E2,1.9700531E4,3.1717156E4,8.74688E3,5.533578E3,1.4175609E4,6.548412E3,2.708111E4,5.7147446E3,1.5640754E3,2.2175476E3,7.992181E2,4.5631747E2,1.6465765E3,2.1823918E3,1.5936663E3,2.9767517E2,4.865664E4,1.1532925E4,8.299308E3,6.4671475E3,7.4764164E4,1.4988607E4,4.336703E4,1.1802511E4,2.2428102E4,1.9604074E4,6.3815547E3,3.4708748E3,1.2185072E4,3.1579185E3,3.3565745E3,1.0491062E3,8.0073735E3,4.946266E3,6.779662E3,4.0116365E3,2.2642747E3,7.4542456E2,1.00070087E3,4.6735886E2,2.8766729E3,3.049713E3,3.0096108E3,8.02398E2,2.5443718E3,1.5749401E3,1.4013699E3,8.6467126E2,1.8567157E3,1.1859308E3,2.3166548E3,1.6188406E3,9.0980835E2,7.4162634E2,6.378375E2,4.2354672E2,1.1362888E3,2.3239862E2,1.1631414E3,4.2257507E2,1.2428159E2,2.1923732E2,1.0944199E2,4.6992043E1],"tree_param":{"num_deleted":"0","num_feature":"15","num_nodes":"127","size_leaf_vector":"1"}},{"base_weights":[-9.101419E-3,1.1786866E0,-5.402019E-1,4.2484382E-1,2.25953E0,-1.4385341E-1,-8.0228406E-1,1.3741429E-1,1.0780464E0,1.5987811E0,2.8455164E0,-3.8955432E-1,6.857735E-1,-8.623588E-1,-5.1683015E-1,-2.691681E-1,4.83145E-1,6.110456E-1,1.425625E0,1.3187442E0,2.145215E0,2.5078392E0,3.4393263E0,-5.940285E-1,-1.837997E-1,4.5387733E-1,1.2649294E0,-7.5617707E-1,-9.515215E-1,-2.6103118E-1,-7.7007926E-1,2.171341E0,-3.0353642E-1,7.4463916E-1,1.5883847E-1,3.7615645E-1,1.063971E0,1.1211239E0,1.8708576E0,6.208844E-1,1.4866945E0,1.452505E0,2.4697673E0,2.7462387E0,1.9410528E0,3.6214058E0,2.8384035E0,-6.693403E-1,-2.3394333E-1,-2.9265618E-1,1.4002031E-1,8.008059E-1,2.4740654E-1,1.6893551E0,9.687928E-1,-7.9575264E-1,-5.17321E-1,-9.7481906E-1,-8.385153E-1,-3.4986562E-1,3.6515746E-2,-6.405346E-1,-8.805156E-1,4.8901135E-1,-8.9161135E-2,-6.2352326E-2,-1.337605E-2,4.5729485E-1,6.928328E-2,-2.4002902E-3,4.2505328E-2,-4.5601284E-4,5.673132E-2,1.4490159E-1,5.6844052E-2,1.3351335E-1,7.702876E-2,2.2777787E-1,1.2930736E-1,2.3933868E-1,4.7131754E-2,1.0632695E-1,1.7616534E-1,1.19870305E-1,2.2294931E-1,2.2943242E-1,3.191044E-1,1.9362368E-1,2.849531E-1,1.6519257E-1,2.573741E-1,3.768699E-1,2.9895267E-1,3.0223724E-1,2.0666836E-1,-8.196147E-2,-5.742174E-2,-4.4917673E-2,-1.52193485E-2,-1.7658593E-2,-4.772932E-2,4.6043396E-2,-4.0749167E-3,6.13466E-2,1.1389362E-1,4.474526E-2,1.0339771E-2,1.5273964E-1,2.3956668E-1,8.258309E-2,1.3976724E-1,-8.350175E-2,-6.2557146E-2,-5.7376403E-2,-3.611842E-2,-9.32541E-2,-1.0152495E-1,-7.605126E-2,-9.020191E-2,-2.0603994E-2,-4.4766746E-2,2.9210174E-2,-1.5519002E-2,-7.002017E-2,-5.111907E-2,-9.197785E-2,-7.703176E-2],"categories":[],"categories_nodes":[],"categories_segments":[],"categories_sizes":[],"default_left":[0,0,0,0,0,0,0,0,0,0,0,0,0,0,0,0,0,0,0,0,0,0,0,0,0,0,0,0,0,0,0,0,0,0,0,0,0,0,0,0,0,0,0,0,0,0,0,0,0,0,0,0,0,0,0,0,0,0,0,0,0,0,0,0,0,0,0,0,0,0,0,0,0,0,0,0,0,0,0,0,0,0,0,0,0,0,0,0,0,0,0,0,0,0,0,0,0,0,0,0,0,0,0,0,0,0,0,0,0,0,0,0,0,0,0,0,0,0,0,0,0,0,0,0,0,0,0],"id":1,"left_children":[1,3,5,7,9,11,13,15,17,19,21,23,25,27,29,31,33,35,37,39,41,43,45,47,49,51,53,55,57,59,61,63,65,67,69,71,73,75,77,79,81,83,85,87,89,91,93,95,97,99,101,103,105,107,109,111,113,115,117,119,121,123,125,-1,-1,-1,-1,-1,-1,-1,-1,-1,-1,-1,-1,-1,-1,-1,-1,-1,-1,-1,-1,-1,-1,-1,-1,-1,-1,-1,-1,-1,-1,-1,-1,-1,-1,-1,-1,-1,-1,-1,-1,-1,-1,-1,-1,-1,-1,-1,-1,-1,-1,-1,-1,-1,-1,-1,-1,-1,-1,-1,-1,-1,-1,-1,-1],"loss_changes":[3.0354328E5,1.2113622E5,3.4538977E4,1.6444342E4,2.3647875E4,2.697873E4,3.431914E3,8.550084E3,4.3434395E3,4.391086E3,6.4828594E3,4.2958486E3,4.0609385E3,1.5647344E3,2.254288E3,2.3452402E3,2.787605E3,1.2147388E3,2.0780273E3,2.2245234E3,2.1834297E3,2.7838203E3,1.2735312E3,1.3887109E3,1.7941744E3,1.5467495E3,1.0850625E3,7.130703E2,2.3580469E2,4.5769653E2,2.4962012E2,3.2379233E3,1.4974463E3,3.606121E3,7.143231E2,5.474879E2,7.4330615E2,6.8327637E2,1.4618125E3,9.7577515E2,1.7798438E3,6.098423E2,8.307461E2,1.2099609E3,1.1143457E3,8.264844E2,3.817793E2,6.0497656E2,1.5583008E2,8.162737E2,7.417505E2,5.0967334E2,3.9002478E2,4.0266504E2,3.1123828E2,4.321328E2,9.436401E1,1.2641406E2,7.544336E1,1.87474E2,1.9514879E2,6.1777588E1,4.0123535E1,0E0,0E0,0E0,0E0,0E0,0E0,0E0,0E0,0E0,0E0,0E0,0E0,0E0,0E0,0E0,0E0,0E0,0E0,0E0,0E0,0E0,0E0,0E0,0E0,0E0,0E0,0E0,0E0,0E0,0E0,0E0,0E0,0E0,0E0,0E0,0E0,0E0,0E0,0E0,0E0,0E0,0E0,0E0,0E0,0E0,0E0,0E0,0E0,0E0,0E0,0E0,0E0,0E0,0E0,0E0,0E0,0E0,0E0,0E0,0E0,0E0,0E0,0E0,0E0],"parents":[2147483647,0,0,1,1,2,2,3,3,4,4,5,5,6,6,7,7,8,8,9,9,10,10,11,11,12,12,13,13,14,14,15,15,16,16,17,17,18,18,19,19,20,20,21,21,22,22,23,23,24,24,25,25,26,26,27,27,28,28,29,29,30,30,31,31,32,32,33,33,34,34,35,35,36,36,37,37,38,38,39,39,40,40,41,41,42,42,43,43,44,44,45,45,46,46,47,47,48,48,49,49,50,50,51,51,52,52,53,53,54,54,55,55,56,56,57,57,58,58,59,59,60,60,61,61,62,62],"right_children":[2,4,6,8,10,12,14,16,18,20,22,24,26,28,30,32,34,36,38,40,42,44,46,48,50,52,54,56,58,60,62,64,66,68,70,72,74,76,78,80,82,84,86,88,90,92,94,96,98,100,102,104,106,108,110,112,114,116,118,120,122,124,126,-1,-1,-1,-1,-1,-1,-1,-1,-1,-1,-1,-1,-1,-1,-1,-1,-1,-1,-1,-1,-1,-1,-1,-1,-1,-1,-1,-1,-1,-1,-1,-1,-1,-1,-1,-1,-1,-1,-1,-1,-1,-1,-1,-1,-1,-1,-1,-1,-1,-1,-1,-1,-1,-1,-1,-1,-1,-1,-1,-1,-1,-1,-1,-1],"split_conditions":[3E0,3E0,7E0,2E0,2E0,3E0,3E0,5.3329587E-1,5.731463E-1,7E0,4E0,5.444331E-1,7E0,1.4E1,1.4E1,1E0,2E0,2E0,2E0,6E0,6E0,2E0,3E1,2E0,2E0,4E0,4E0,2.7226E4,1.7789E4,7E0,2.2E1,2E0,3.5766125E-1,1E0,6.520087E-1,4.2264152E-1,2E0,2E0,2E0,1E0,5.843859E-1,1.9E1,1.6E1,5E0,7E0,2E0,2E0,3.7256977E-1,3.7256977E-1,5E0,4E0,6.5546083E-1,5E0,1.7E1,1.4E1,2E0,2E0,2.4E1,2.2E1,9E0,9E0,1.5871E4,1.8906E4,4.8901135E-1,-8.9161135E-2,-6.2352326E-2,-1.337605E-2,4.5729485E-1,6.928328E-2,-2.4002902E-3,4.2505328E-2,-4.5601284E-4,5.673132E-2,1.4490159E-1,5.6844052E-2,1.3351335E-1,7.702876E-2,2.2777787E-1,1.2930736E-1,2.3933868E-1,4.7131754E-2,1.0632695E-1,1.7616534E-1,1.19870305E-1,2.2294931E-1,2.2943242E-1,3.191044E-1,1.9362368E-1,2.849531E-1,1.6519257E-1,2.573741E-1,3.768699E-1,2.9895267E-1,3.0223724E-1,2.0666836E-1,-8.196147E-2,-5.742174E-2,-4.4917673E-2,-1.52193485E-2,-1.7658593E-2,-4.772932E-2,4.6043396E-2,-4.0749167E-3,6.13466E-2,1.1389362E-1,4.474526E-2,1.0339771E-2,1.5273964E-1,2.3956668E-1,8.258309E-2,1.3976724E-1,-8.350175E-2,-6.2557146E-2,-5.7376403E-2,-3.611842E-2,-9.32541E-2,-1.0152495E-1,-7.605126E-2,-9.020191E-2,-2.0603994E-2,-4.4766746E-2,2.9210174E-2,-1.5519002E-2,-7.002017E-2,-5.111907E-2,-9.197785E-2,-7.703176E-2],"split_indices":[3,0,3,0,4,0,0,9,9,0,4,9,0,3,3,14,3,4,4,14,14,3,14,0,0,3,3,8,8,0,3,3,9,14,9,9,3,3,3,14,9,0,0,14,0,3,3,9,9,3,3,9,3,0,0,0,0,3,3,3,3,8,8,0,0,0,0,0,0,0,0,0,0,0,0,0,0,0,0,0,0,0,0,0,0,0,0,0,0,0,0,0,0,0,0,0,0,0,0,0,0,0,0,0,0,0,0,0,0,0,0,0,0,0,0,0,0,0,0,0,0,0,0,0,0,0,0],"split_type":[0,0,0,0,0,0,0,0,0,0,0,0,0,0,0,0,0,0,0,0,0,0,0,0,0,0,0,0,0,0,0,0,0,0,0,0,0,0,0,0,0,0,0,0,0,0,0,0,0,0,0,0,0,0,0,0,0,0,0,0,0,0,0,0,0,0,0,0,0,0,0,0,0,0,0,0,0,0,0,0,0,0,0,0,0,0,0,0,0,0,0,0,0,0,0,0,0,0,0,0,0,0,0,0,0,0,0,0,0,0,0,0,0,0,0,0,0,0,0,0,0,0,0,0,0,0,0],"sum_hessian":[4.8117506E5,1.4867262E5,3.3250244E5,8.758628E4,6.1086344E4,1.3235011E5,2.0015234E5,6.082333E4,2.6762951E4,2.8713354E4,3.2372992E4,1.0210993E5,3.0240178E4,1.6535155E5,3.480079E4,2.7951885E4,3.2871445E4,1.1420846E4,1.5342105E4,1.8986531E4,9.726822E3,2.0640652E4,1.1732341E4,5.1213387E4,5.0896547E4,2.1595174E4,8.645003E3,7.5477164E4,8.987439E4,1.7314248E4,1.7486543E4,3.873008E2,2.7564584E4,1.8197322E4,1.4674122E4,7.521825E3,3.8990208E3,9.113065E3,6.2290405E3,3.6839292E3,1.5302602E4,3.1050398E3,6.6217827E3,1.4526659E4,6.1139927E3,9.000241E3,2.732099E3,4.235415E4,8.859236E3,3.809163E4,1.2804919E4,8.055987E3,1.35391875E4,3.5509888E3,5.0940137E3,6.4747035E4,1.0730127E4,7.45064E4,1.5367993E4,1.3333326E4,3.9809216E3,8.050223E3,9.436319E3,2.048622E2,1.8243863E2,9.554317E3,1.8010266E4,2.4180113E2,1.7955521E4,8.699827E3,5.974296E3,2.514603E3,5.007222E3,2.1930327E3,1.7059879E3,5.6585522E3,3.454513E3,3.653216E3,2.5758245E3,2.8549963E2,3.3984297E3,6.026664E3,9.2759375E3,2.3424312E3,7.626085E2,5.3295933E3,1.2921896E3,1.645171E3,1.2881488E4,4.1988193E3,1.9151733E3,7.294829E3,1.7054124E3,2.2038186E3,5.2828033E2,1.6414717E4,2.5939434E4,2.4374229E3,6.4218135E3,2.338981E4,1.4701816E4,4.61799E3,8.186928E3,5.1856885E3,2.8702983E3,5.666128E3,7.873059E3,2.8911946E3,6.597943E2,3.8226912E3,1.2713228E3,5.260573E4,1.2141308E4,7.87916E3,2.8509675E3,3.6432707E4,3.8073688E4,6.902506E3,8.465487E3,5.398092E3,7.935234E3,1.7059675E3,2.274954E3,5.5059033E3,2.54432E3,6.952013E3,2.4843066E3],"tree_param":{"num_deleted":"0","num_feature":"15","num_nodes":"127","size_leaf_vector":"1"}},{"base_weights":[-1.2092735E-2,-3.4188274E-1,1.5952593E0,2.559066E-1,-6.588107E-1,1.1105716E0,2.1312044E0,-4.693569E-3,7.1132886E-1,-7.8597915E-1,-2.9633933E-1,1.3304245E0,3.2592896E-1,2.3698504E0,1.5933867E0,-3.9938155E-1,2.256343E-1,5.1173156E-1,1.2026827E0,-6.269446E-1,-8.921918E-1,-3.9802417E-1,-4.375072E-2,1.0180017E0,1.6016543E0,5.09145E-1,-1.3294674E-1,2.055715E0,2.648499E0,1.7171363E0,3.0845672E-1,-1.5310991E-1,-5.344875E-1,5.8632547E-1,-1.165503E-2,2.2625503E-1,7.636197E-1,1.5740947E0,7.883561E-1,-6.9553006E-1,-3.615049E-1,-9.426785E-1,-7.9250526E-1,-5.6914556E-1,-2.960314E-1,7.320343E-2,-3.5347003E-1,8.6724746E-1,1.4381365E0,1.8288167E0,1.3371809E0,2.6014608E-1,8.059339E-1,2.260899E-2,-4.4267777E-1,1.8607117E0,2.399789E0,2.4609091E0,2.9312963E0,2.1500723E0,1.5016426E0,5.295911E-1,-2.9537055E-1,-5.5686444E-2,-2.491961E-3,-7.376437E-2,-4.1978728E-2,3.7221886E-2,8.9257315E-2,-1.2619008E-2,3.1748187E-2,-1.9449754E-2,3.604424E-2,3.504662E-2,9.229223E-2,1.17706835E-1,1.8650492E-1,4.329669E-2,1.0637963E-1,-8.5161984E-2,-6.1944645E-2,-1.9140579E-2,-4.525397E-2,-8.8732E-2,-9.7862355E-2,-8.320635E-2,-7.303791E-2,-6.775098E-2,-3.937613E-2,-2.2232592E-2,-5.868679E-2,-1.751946E-2,3.6526408E-2,-2.5320252E-2,-6.077112E-2,1.1194058E-1,6.253296E-2,1.6623321E-1,1.1943095E-1,1.5531948E-1,2.1084324E-1,1.1808371E-1,1.6510433E-1,7.540301E-2,2.1026706E-2,9.226007E-2,4.073921E-2,-1.1013566E-2,2.8756252E-2,-2.9044569E-2,-6.8573706E-2,1.4598735E-1,2.0266509E-1,2.2873925E-1,2.6688024E-1,2.2719531E-1,2.582966E-1,2.8370085E-1,3.1801578E-1,1.9584501E-1,2.6651758E-1,1.3375692E-1,1.9471854E-1,7.067429E-2,3.156711E-2,-1.6058698E-2,-8.168262E-2],"categories":[],"categories_nodes":[],"categories_segments":[],"categories_sizes":[],"default_left":[0,0,0,0,0,0,0,0,0,0,0,0,0,0,0,0,0,0,0,0,0,0,0,0,0,0,0,0,0,0,0,0,0,0,0,0,0,0,0,0,0,0,0,0,0,0,0,0,0,0,0,0,0,0,0,0,0,0,0,0,0,0,0,0,0,0,0,0,0,0,0,0,0,0,0,0,0,0,0,0,0,0,0,0,0,0,0,0,0,0,0,0,0,0,0,0,0,0,0,0,0,0,0,0,0,0,0,0,0,0,0,0,0,0,0,0,0,0,0,0,0,0,0,0,0,0,0],"id":2,"left_children":[1,3,5,7,9,11,13,15,17,19,21,23,25,27,29,31,33,35,37,39,41,43,45,47,49,51,53,55,57,59,61,63,65,67,69,71,73,75,77,79,81,83,85,87,89,91,93,95,97,99,101,103,105,107,109,111,113,115,117,119,121,123,125,-1,-1,-1,-1,-1,-1,-1,-1,-1,-1,-1,-1,-1,-1,-1,-1,-1,-1,-1,-1,-1,-1,-1,-1,-1,-1,-1,-1,-1,-1,-1,-1,-1,-1,-1,-1,-1,-1,-1,-1,-1,-1,-1,-1,-1,-1,-1,-1,-1,-1,-1,-1,-1,-1,-1,-1,-1,-1,-1,-1,-1,-1,-1,-1],"loss_changes":[2.544497E5,7.545928E4,2.1225781E4,1.6378266E4,1.1998008E4,7.402535E3,4.9770156E3,7.9795186E3,4.9251777E3,3.2542812E3,1.736374E3,2.8389062E3,7.898464E2,2.34725E3,1.8965137E3,1.076186E3,4.7440977E3,2.56829E3,2.2313574E3,1.4045098E3,5.806953E2,8.41083E2,7.0294354E2,9.8557324E2,1.0754727E3,4.9592932E2,1.2919511E2,8.4353906E2,7.4821094E2,1.0120156E3,1.4026343E2,5.931527E2,4.864082E2,1.441895E3,1.2604607E3,9.4545593E2,1.2485576E3,8.814219E2,6.7104297E2,7.2766797E2,2.4528491E2,1.5172656E2,9.4859375E1,3.41813E2,6.4729565E2,1.0220382E3,1.3544653E2,6.9890625E2,2.2284082E2,7.403594E2,4.0503223E2,8.9812E1,1.4201611E2,6.2840965E1,3.297113E1,5.339043E2,1.3202734E2,1.9172266E2,1.2410547E2,3.5151562E2,5.2876953E2,2.8895432E1,1.968217E1,0E0,0E0,0E0,0E0,0E0,0E0,0E0,0E0,0E0,0E0,0E0,0E0,0E0,0E0,0E0,0E0,0E0,0E0,0E0,0E0,0E0,0E0,0E0,0E0,0E0,0E0,0E0,0E0,0E0,0E0,0E0,0E0,0E0,0E0,0E0,0E0,0E0,0E0,0E0,0E0,0E0,0E0,0E0,0E0,0E0,0E0,0E0,0E0,0E0,0E0,0E0,0E0,0E0,0E0,0E0,0E0,0E0,0E0,0E0,0E0,0E0,0E0,0E0,0E0],"parents":[2147483647,0,0,1,1,2,2,3,3,4,4,5,5,6,6,7,7,8,8,9,9,10,10,11,11,12,12,13,13,14,14,15,15,16,16,17,17,18,18,19,19,20,20,21,21,22,22,23,23,24,24,25,25,26,26,27,27,28,28,29,29,30,30,31,31,32,32,33,33,34,34,35,35,36,36,37,37,38,38,39,39,40,40,41,41,42,42,43,43,44,44,45,45,46,46,47,47,48,48,49,49,50,50,51,51,52,52,53,53,54,54,55,55,56,56,57,57,58,58,59,59,60,60,61,61,62,62],"right_children":[2,4,6,8,10,12,14,16,18,20,22,24,26,28,30,32,34,36,38,40,42,44,46,48,50,52,54,56,58,60,62,64,66,68,70,72,74,76,78,80,82,84,86,88,90,92,94,96,98,100,102,104,106,108,110,112,114,116,118,120,122,124,126,-1,-1,-1,-1,-1,-1,-1,-1,-1,-1,-1,-1,-1,-1,-1,-1,-1,-1,-1,-1,-1,-1,-1,-1,-1,-1,-1,-1,-1,-1,-1,-1,-1,-1,-1,-1,-1,-1,-1,-1,-1,-1,-1,-1,-1,-1,-1,-1,-1,-1,-1,-1,-1,-1,-1,-1,-1,-1,-1,-1,-1,-1,-1,-1],"split_conditions":[2.647059E-1,4E0,4.375E-1,2E0,1.0344828E-1,4E0,2E0,4.9543998E-1,2E0,1.1E1,1.724138E-1,4.528302E-1,7E0,4.985591E-1,5E0,2E0,2E0,1.4285715E-1,2E0,2E0,4.6511628E-2,5.195583E-1,8E0,6.9603753E-1,2E0,5E0,1.1E1,7.0390564E-1,7E-1,1.15E1,8E0,2.7906978E-1,3.3302498E-1,6.426784E-1,6.8012714E-1,4.778761E-1,5.254878E-1,5.6707317E-1,3E0,4.3870968E-1,6E0,2.2E1,5.905596E-1,4.528302E-1,1.1E1,4.5528457E-1,1.4E1,2E0,2E0,2E0,9E0,8.7027025E0,6E0,2.7E1,1.6E1,2.7272728E-1,8.027339E-1,6.149254E-1,7.461929E-1,7.499749E-1,7.2321033E-1,6E0,1.4E1,-5.5686444E-2,-2.491961E-3,-7.376437E-2,-4.1978728E-2,3.7221886E-2,8.9257315E-2,-1.2619008E-2,3.1748187E-2,-1.9449754E-2,3.604424E-2,3.504662E-2,9.229223E-2,1.17706835E-1,1.8650492E-1,4.329669E-2,1.0637963E-1,-8.5161984E-2,-6.1944645E-2,-1.9140579E-2,-4.525397E-2,-8.8732E-2,-9.7862355E-2,-8.320635E-2,-7.303791E-2,-6.775098E-2,-3.937613E-2,-2.2232592E-2,-5.868679E-2,-1.751946E-2,3.6526408E-2,-2.5320252E-2,-6.077112E-2,1.1194058E-1,6.253296E-2,1.6623321E-1,1.1943095E-1,1.5531948E-1,2.1084324E-1,1.1808371E-1,1.6510433E-1,7.540301E-2,2.1026706E-2,9.226007E-2,4.073921E-2,-1.1013566E-2,2.8756252E-2,-2.9044569E-2,-6.8573706E-2,1.4598735E-1,2.0266509E-1,2.2873925E-1,2.6688024E-1,2.2719531E-1,2.582966E-1,2.8370085E-1,3.1801578E-1,1.9584501E-1,2.6651758E-1,1.3375692E-1,1.9471854E-1,7.067429E-2,3.156711E-2,-1.6058698E-2,-8.168262E-2],"split_indices":[1,3,1,0,1,3,3,9,4,3,1,7,3,7,3,3,3,1,3,0,1,9,3,9,3,0,3,9,1,6,3,9,9,9,9,9,9,7,0,9,3,3,9,7,3,7,3,3,3,4,0,6,3,5,3,7,9,7,7,9,9,3,3,0,0,0,0,0,0,0,0,0,0,0,0,0,0,0,0,0,0,0,0,0,0,0,0,0,0,0,0,0,0,0,0,0,0,0,0,0,0,0,0,0,0,0,0,0,0,0,0,0,0,0,0,0,0,0,0,0,0,0,0,0,0,0,0],"split_type":[0,0,0,0,0,0,0,0,0,0,0,0,0,0,0,0,0,0,0,0,0,0,0,0,0,0,0,0,0,0,0,0,0,0,0,0,0,0,0,0,0,0,0,0,0,0,0,0,0,0,0,0,0,0,0,0,0,0,0,0,0,0,0,0,0,0,0,0,0,0,0,0,0,0,0,0,0,0,0,0,0,0,0,0,0,0,0,0,0,0,0,0,0,0,0,0,0,0,0,0,0,0,0,0,0,0,0,0,0,0,0,0,0,0,0,0,0,0,0,0,0,0,0,0,0,0,0],"sum_hessian":[4.8001147E5,3.9829228E5,8.171921E4,1.3799894E5,2.6029333E5,4.2913227E4,3.880598E4,8.777412E4,5.022482E4,1.9268948E5,6.760384E4,3.3520305E4,9.392919E3,2.6876605E4,1.1929377E4,3.234583E4,5.5428285E4,3.5717668E4,1.4507153E4,7.716121E4,1.1552828E5,4.8199535E4,1.9404309E4,1.5579458E4,1.7940848E4,6.7126416E3,2.6802773E3,1.2637764E4,1.4238841E4,1.0881099E4,1.0482786E3,1.1459514E4,2.0886316E4,2.199435E4,3.3433938E4,1.6743441E4,1.8974225E4,7.64827E3,6.858884E3,6.131639E4,1.5844819E4,7.66833E4,3.8844984E4,1.7998105E4,3.020143E4,1.4086008E4,5.3183013E3,1.1467658E4,4.1118E3,9.648024E3,8.292823E3,3.651225E3,3.0614165E3,1.784818E3,8.954594E2,8.0703286E3,4.567435E3,8.566238E3,5.672603E3,3.61315E3,7.2679487E3,7.673731E2,2.809054E2,2.760756E3,8.698758E3,7.5349795E3,1.3351336E4,1.2945788E4,9.048562E3,2.4803338E4,8.630599E3,4.0485427E3,1.2694898E4,5.28102E3,1.3693206E4,3.2366694E3,4.4116006E3,2.99593E3,3.862954E3,2.0090135E4,4.1226258E4,5.5247964E3,1.0320022E4,3.0199346E4,4.648395E4,2.3725566E4,1.5119418E4,1.1122816E4,6.8752886E3,2.4096516E4,6.1049155E3,7.6122114E3,6.473797E3,3.8155298E3,1.5027712E3,5.6132114E3,5.8544473E3,2.1391042E3,1.9726954E3,4.8620117E3,4.7860127E3,5.538635E3,2.7541885E3,3.3362946E2,3.3175955E3,2.3671548E3,6.9426184E2,1.1894664E3,5.953515E2,5.519555E2,3.4350388E2,2.365673E3,5.7046553E3,3.2281724E3,1.339263E3,3.3695176E3,5.1967207E3,4.1229204E3,1.5496826E3,2.6369775E3,9.761724E2,5.314762E3,1.9531864E3,4.1850012E2,3.48873E2,2.2425017E2,5.6655243E1],"tree_param":{"num_deleted":"0","num_feature":"15","num_nodes":"127","size_leaf_vector":"1"}},{"base_weights":[-1.3922708E-2,-3.989406E-1,1.0473728E0,5.9210114E-2,-7.0026535E-1,5.8792347E-1,1.5164721E0,4.4167683E-1,-1.3114396E-1,-8.272513E-1,-4.711983E-1,1.0020014E0,3.643959E-1,1.7559836E0,1.1087811E0,2.8131392E0,3.958141E-1,-3.0463335E-1,2.3960894E-1,-7.0883244E-1,-9.1028434E-1,-5.3630084E-1,-2.2882786E-1,4.7914842E-1,1.2465898E0,4.6112168E-1,-9.958145E-2,1.5884122E0,2.0687075E0,1.2674862E0,4.9267864E-1,4.4616285E-1,3.2789927E0,2.860686E-1,1.1473873E0,-3.7755674E-1,1.0455285E-1,1.09882995E-1,5.319981E-1,-7.5490505E-1,-4.8374432E-1,-9.3679327E-1,-7.87162E-1,-6.0818714E-1,-3.7026343E-1,-1.2219538E-1,-4.3878242E-1,2.9821763E0,4.3634474E-1,3.2629488E0,1.2180566E0,1.195533E-1,7.291176E-1,6.278422E-2,-3.4523657E-1,1.3662475E0,1.7692027E0,2.194737E0,1.7590258E0,9.6490186E-1,1.5317361E0,7.130539E-1,8.038947E-2,1.9383943E-1,-3.5282385E-3,4.4128963E-1,3.0114278E-1,2.3313537E-2,8.6420916E-2,9.847532E-2,1.7281596E-1,-2.414394E-2,-4.5300085E-2,2.864111E-3,5.855717E-2,-2.8169652E-2,1.6277647E-2,4.703599E-2,1.2527929E-1,-8.03875E-2,-5.942877E-2,-3.7630867E-2,-5.5767775E-2,-8.891718E-2,-9.7844034E-2,-7.372563E-2,-8.84803E-2,-6.8780266E-2,-5.210417E-2,-3.292113E-2,-6.848589E-2,-2.1450305E-2,1.3304059E-2,-3.816558E-2,-6.369821E-2,1.1670088E-1,3.9537236E-1,1.9132523E-2,6.4067475E-2,1.3257806E-1,3.736824E-1,1.11034945E-1,1.7620628E-1,-1.4411511E-3,5.4800477E-2,5.5039655E-2,9.616747E-2,-6.1560026E-3,3.0033344E-2,-4.838321E-2,-1.6452389E-2,3.4144107E-1,1.342862E-1,1.2524965E-1,1.8365857E-1,1.7010652E-1,2.2565866E-1,1.4143592E-1,1.8663059E-1,1.3732313E-1,8.617457E-2,-1.2226121E-2,1.5564598E-1,5.1861744E-2,1.0085895E-1,2.2558955E-2,-3.4856193E-2],"categories":[],"categories_nodes":[],"categories_segments":[],"categories_sizes":[],"default_left":[0,0,0,0,0,0,0,0,0,0,0,0,0,0,0,0,0,0,0,0,0,0,0,0,0,0,0,0,0,0,0,0,0,0,0,0,0,0,0,0,0,0,0,0,0,0,0,0,0,0,0,0,0,0,0,0,0,0,0,0,0,0,0,0,0,0,0,0,0,0,0,0,0,0,0,0,0,0,0,0,0,0,0,0,0,0,0,0,0,0,0,0,0,0,0,0,0,0,0,0,0,0,0,0,0,0,0,0,0,0,0,0,0,0,0,0,0,0,0,0,0,0,0,0,0,0,0],"id":3,"left_children":[1,3,5,7,9,11,13,15,17,19,21,23,25,27,29,31,33,35,37,39,41,43,45,47,49,51,53,55,57,59,61,63,65,67,69,71,73,75,77,79,81,83,85,87,89,91,93,95,97,99,101,103,105,107,109,111,113,115,117,119,121,123,125,-1,-1,-1,-1,-1,-1,-1,-1,-1,-1,-1,-1,-1,-1,-1,-1,-1,-1,-1,-1,-1,-1,-1,-1,-1,-1,-1,-1,-1,-1,-1,-1,-1,-1,-1,-1,-1,-1,-1,-1,-1,-1,-1,-1,-1,-1,-1,-1,-1,-1,-1,-1,-1,-1,-1,-1,-1,-1,-1,-1,-1,-1,-1,-1],"loss_changes":[1.9508814E5,4.8364973E4,2.7391781E4,1.0119749E4,6.1471484E3,5.942783E3,6.13875E3,5.0226934E3,5.969702E3,1.3362422E3,1.1892383E3,2.878037E3,1.871541E3,2.0725625E3,2.2752148E3,9.6468555E2,3.737397E3,1.8866089E3,1.1221326E3,5.808496E2,2.601172E2,7.089551E2,3.5729327E2,7.674874E2,8.7830664E2,3.158709E3,2.869865E2,1.0336953E3,5.3541016E2,1.4783203E3,4.3326233E2,1.0441718E2,2.087793E2,1.2099319E3,5.4363477E2,5.509541E2,3.4921423E2,4.2452625E2,4.0335767E2,3.6542773E2,7.545117E1,1.2954297E2,6.837207E1,2.8731445E2,2.3165405E2,2.4945569E2,6.06239E1,2.0784497E2,3.5314282E2,1.9092505E2,8.841367E2,8.70873E2,8.0313477E2,1.279909E2,7.163077E1,5.499824E2,4.9276953E2,2.9589844E2,1.4532617E2,3.6234814E2,4.041172E2,1.7806055E2,1.03617256E2,0E0,0E0,0E0,0E0,0E0,0E0,0E0,0E0,0E0,0E0,0E0,0E0,0E0,0E0,0E0,0E0,0E0,0E0,0E0,0E0,0E0,0E0,0E0,0E0,0E0,0E0,0E0,0E0,0E0,0E0,0E0,0E0,0E0,0E0,0E0,0E0,0E0,0E0,0E0,0E0,0E0,0E0,0E0,0E0,0E0,0E0,0E0,0E0,0E0,0E0,0E0,0E0,0E0,0E0,0E0,0E0,0E0,0E0,0E0,0E0,0E0,0E0,0E0,0E0],"parents":[2147483647,0,0,1,1,2,2,3,3,4,4,5,5,6,6,7,7,8,8,9,9,10,10,11,11,12,12,13,13,14,14,15,15,16,16,17,17,18,18,19,19,20,20,21,21,22,22,23,23,24,24,25,25,26,26,27,27,28,28,29,29,30,30,31,31,32,32,33,33,34,34,35,35,36,36,37,37,38,38,39,39,40,40,41,41,42,42,43,43,44,44,45,45,46,46,47,47,48,48,49,49,50,50,51,51,52,52,53,53,54,54,55,55,56,56,57,57,58,58,59,59,60,60,61,61,62,62],"right_children":[2,4,6,8,10,12,14,16,18,20,22,24,26,28,30,32,34,36,38,40,42,44,46,48,50,52,54,56,58,60,62,64,66,68,70,72,74,76,78,80,82,84,86,88,90,92,94,96,98,100,102,104,106,108,110,112,114,116,118,120,122,124,126,-1,-1,-1,-1,-1,-1,-1,-1,-1,-1,-1,-1,-1,-1,-1,-1,-1,-1,-1,-1,-1,-1,-1,-1,-1,-1,-1,-1,-1,-1,-1,-1,-1,-1,-1,-1,-1,-1,-1,-1,-1,-1,-1,-1,-1,-1,-1,-1,-1,-1,-1,-1,-1,-1,-1,-1,-1,-1,-1,-1,-1,-1,-1,-1],"split_conditions":[2.0833333E-1,5E0,3.529412E-1,2E0,7.317073E-2,2E0,2E0,1E0,2E0,1.4E1,2.3641E4,2.8703704E-1,6E0,6.4285713E-1,4E0,5E0,2E0,3.017E4,4E0,2E0,1.7789E4,1.3043478E-1,1E1,1E0,1E0,3.5185185E-1,9E0,4.5E-1,3E1,5E0,6E0,1E0,1.2E1,7.5165E4,7.37931E-1,3E0,1.52657E5,4E0,3E0,1.2184E4,8E0,2.4E1,3.1E1,4.743363E-1,1.4E1,3E0,2E1,1.1105263E1,1.5384616E-1,5.3333335E0,3E0,2.495E4,5E0,6E0,1.063E4,1E0,5E0,5E0,3.4615386E-1,1.2208333E1,1E0,9E0,1E1,1.9383943E-1,-3.5282385E-3,4.4128963E-1,3.0114278E-1,2.3313537E-2,8.6420916E-2,9.847532E-2,1.7281596E-1,-2.414394E-2,-4.5300085E-2,2.864111E-3,5.855717E-2,-2.8169652E-2,1.6277647E-2,4.703599E-2,1.2527929E-1,-8.03875E-2,-5.942877E-2,-3.7630867E-2,-5.5767775E-2,-8.891718E-2,-9.7844034E-2,-7.372563E-2,-8.84803E-2,-6.8780266E-2,-5.210417E-2,-3.292113E-2,-6.848589E-2,-2.1450305E-2,1.3304059E-2,-3.816558E-2,-6.369821E-2,1.1670088E-1,3.9537236E-1,1.9132523E-2,6.4067475E-2,1.3257806E-1,3.736824E-1,1.11034945E-1,1.7620628E-1,-1.4411511E-3,5.4800477E-2,5.5039655E-2,9.616747E-2,-6.1560026E-3,3.0033344E-2,-4.838321E-2,-1.6452389E-2,3.4144107E-1,1.342862E-1,1.2524965E-1,1.8365857E-1,1.7010652E-1,2.2565866E-1,1.4143592E-1,1.8663059E-1,1.3732313E-1,8.617457E-2,-1.2226121E-2,1.5564598E-1,5.1861744E-2,1.0085895E-1,2.2558955E-2,-3.4856193E-2],"split_indices":[1,3,1,3,1,3,3,14,0,3,8,7,3,1,3,6,4,8,0,0,8,1,3,14,14,7,3,7,14,0,3,12,13,8,7,3,8,14,4,8,3,3,3,7,3,0,3,6,7,6,4,8,0,0,8,14,14,14,7,6,14,0,3,0,0,0,0,0,0,0,0,0,0,0,0,0,0,0,0,0,0,0,0,0,0,0,0,0,0,0,0,0,0,0,0,0,0,0,0,0,0,0,0,0,0,0,0,0,0,0,0,0,0,0,0,0,0,0,0,0,0,0,0,0,0,0,0],"split_type":[0,0,0,0,0,0,0,0,0,0,0,0,0,0,0,0,0,0,0,0,0,0,0,0,0,0,0,0,0,0,0,0,0,0,0,0,0,0,0,0,0,0,0,0,0,0,0,0,0,0,0,0,0,0,0,0,0,0,0,0,0,0,0,0,0,0,0,0,0,0,0,0,0,0,0,0,0,0,0,0,0,0,0,0,0,0,0,0,0,0,0,0,0,0,0,0,0,0,0,0,0,0,0,0,0,0,0,0,0,0,0,0,0,0,0,0,0,0,0,0,0,0,0,0,0,0,0],"sum_hessian":[4.7743228E5,3.503372E5,1.2709507E5,1.389979E5,2.1133928E5,6.4209098E4,6.2885977E4,4.6189957E4,9.280795E4,1.3596364E5,7.537563E4,2.2508785E4,4.1700312E4,3.961156E4,2.327442E4,8.7519446E2,4.5314766E4,6.3223465E4,2.9584488E4,5.604447E4,7.991918E4,5.9415082E4,1.5960551E4,7.1746343E3,1.533415E4,3.450668E4,7.193634E3,2.5795342E4,1.3816216E4,1.8506242E4,4.7681777E3,1.4424603E2,7.309484E2,3.9542156E4,5.772607E3,5.3660418E4,9.563047E3,2.0493428E4,9.09106E3,4.6520066E4,9.524401E3,6.575512E4,1.4164057E4,4.1461535E4,1.7953549E4,1.0585785E4,5.3747656E3,1.1947427E2,7.05516E3,2.1238182E2,1.5121769E4,1.5171553E4,1.9335127E4,4.331485E3,2.862149E3,1.157722E4,1.4218122E4,9.815545E3,4.0006707E3,8.629511E3,9.876731E3,3.1068083E3,1.6613691E3,3.4448204E1,1.0979784E2,1.3659317E2,5.943552E2,3.6226723E4,3.315433E3,4.511847E3,1.2607596E3,1.9137133E4,3.4523285E4,8.260482E3,1.3025641E3,2.438257E3,1.8055172E4,8.376409E3,7.1464996E2,3.5647605E4,1.0872463E4,3.8850164E3,5.6393853E3,3.0687627E4,3.5067492E4,9.378917E3,4.7851396E3,2.166325E4,1.9798283E4,1.5882996E4,2.0705527E3,7.774316E3,2.81147E3,4.174488E3,1.2002776E3,4.242036E1,7.705391E1,3.209031E3,3.8461292E3,4.248873E1,1.698931E2,1.2625167E4,2.496601E3,1.1558499E4,3.6130537E3,1.0934945E4,8.400181E3,2.8437012E3,1.4877837E3,1.6188856E3,1.2432633E3,1.2905775E2,1.1448162E4,1.642522E3,1.25756E4,1.0959982E3,8.719547E3,9.530183E2,3.0476523E3,1.7379128E3,6.891598E3,1.4540305E2,9.731328E3,1.87559E3,1.2312184E3,1.2415712E3,4.197979E2],"tree_param":{"num_deleted":"0","num_feature":"15","num_nodes":"127","size_leaf_vector":"1"}},{"base_weights":[-1.701914E-2,-3.7405452E-1,8.7767994E-1,-6.272629E-1,-5.4663997E-2,5.8221287E-1,1.3660315E0,-7.8082764E-1,-4.9884123E-1,-2.6155755E-1,1.5544847E-1,3.20837E-1,7.667511E-1,1.2372926E0,1.731864E0,-8.4404E-1,-6.741994E-1,-6.264678E-1,-3.3456302E-1,-3.950976E-1,-3.87449E-2,2.0862969E-2,3.51103E-1,-4.8838247E-2,5.065218E-1,6.8668985E-1,1.0864718E0,1.3453484E0,9.7619563E-1,1.8428675E0,1.4555447E0,-9.147146E-1,-7.949721E-1,-7.887635E-1,-6.081603E-1,-7.628885E-1,-5.574568E-1,-4.7001535E-1,-2.4561389E-1,-6.339752E-1,-2.8809825E-1,-1.8719463E-1,1.7836702E-1,-1.6900915E-1,1.2659615E-1,1.3529256E-1,4.6715993E-1,-4.1278517E-1,8.383733E-2,3.9023036E-1,6.943502E-1,2.927059E-1,7.459254E-1,4.9352643E-1,1.130057E0,8.520233E-1,1.3984177E0,8.5971373E-1,1.1842917E0,1.6345316E0,1.9198247E0,1.6780657E0,1.3476219E0,-9.6183114E-2,-8.8510156E-2,-8.7691724E-2,-7.479077E-2,-8.519018E-2,-7.359713E-2,-6.500137E-2,-4.7918387E-2,-8.2228385E-2,-6.325992E-2,-6.48888E-2,-4.612898E-2,-4.973501E-2,1.3815044E-4,-3.5222024E-2,-1.2456065E-2,-7.749176E-2,-5.3663403E-2,-3.9719135E-2,-1.3026779E-2,-3.836639E-2,-1.1319137E-2,8.535925E-3,3.119821E-2,-2.1427259E-2,2.5468418E-2,5.455828E-3,2.7859136E-2,5.9649916E-3,5.7980645E-2,4.0449046E-2,7.492425E-2,-6.3229956E-2,-2.6977232E-2,-9.792923E-3,2.719894E-2,3.10159E-2,5.6007903E-2,6.019464E-2,8.258518E-2,4.1677114E-2,1.5018584E-2,6.4964764E-2,9.042902E-2,4.7658503E-2,1.7179483E-1,1.237221E-1,8.811495E-2,1.1970865E-1,7.174095E-2,1.3047843E-1,1.6805561E-1,5.9896987E-2,1.00431286E-1,1.1242347E-1,1.3905263E-1,1.8130338E-1,1.4454748E-1,1.7849037E-1,2.0523266E-1,1.3183112E-1,1.7801218E-1,9.634898E-2,1.4095996E-1],"categories":[],"categories_nodes":[],"categories_segments":[],"categories_sizes":[],"default_left":[0,0,0,0,0,0,0,0,0,0,0,0,0,0,0,0,0,0,0,0,0,0,0,0,0,0,0,0,0,0,0,0,0,0,0,0,0,0,0,0,0,0,0,0,0,0,0,0,0,0,0,0,0,0,0,0,0,0,0,0,0,0,0,0,0,0,0,0,0,0,0,0,0,0,0,0,0,0,0,0,0,0,0,0,0,0,0,0,0,0,0,0,0,0,0,0,0,0,0,0,0,0,0,0,0,0,0,0,0,0,0,0,0,0,0,0,0,0,0,0,0,0,0,0,0,0,0],"id":4,"left_children":[1,3,5,7,9,11,13,15,17,19,21,23,25,27,29,31,33,35,37,39,41,43,45,47,49,51,53,55,57,59,61,63,65,67,69,71,73,75,77,79,81,83,85,87,89,91,93,95,97,99,101,103,105,107,109,111,113,115,117,119,121,123,125,-1,-1,-1,-1,-1,-1,-1,-1,-1,-1,-1,-1,-1,-1,-1,-1,-1,-1,-1,-1,-1,-1,-1,-1,-1,-1,-1,-1,-1,-1,-1,-1,-1,-1,-1,-1,-1,-1,-1,-1,-1,-1,-1,-1,-1,-1,-1,-1,-1,-1,-1,-1,-1,-1,-1,-1,-1,-1,-1,-1,-1,-1,-1,-1],"loss_changes":[1.5138547E5,2.73943E4,1.9503797E4,3.7257734E3,6.5116777E3,4.0620625E3,2.3976484E3,5.7939844E2,2.1571777E3,2.2456987E3,1.9569796E3,2.3926492E3,1.2628906E3,1.0621562E3,4.040703E2,1.8659766E2,2.4185254E2,5.4475E2,5.4195557E2,1.2060151E3,9.1165515E2,8.840025E2,7.5853345E2,5.628195E2,5.065249E2,9.2122266E2,2.548916E2,6.9673047E2,2.6651855E2,1.4848242E2,8.9123535E1,3.0023438E1,1.22333984E2,3.840088E1,1.0939209E2,1.4999805E2,3.3785156E2,2.2978418E2,3.5045093E2,1.9986328E2,5.6116187E2,2.442055E2,1.4271957E2,3.0210574E2,3.0966898E2,3.5615704E2,3.4787305E2,9.7584595E1,2.9216614E2,1.9474341E2,1.0729492E2,9.121097E1,5.2271484E2,1.3257629E1,2.4449316E2,1.1952905E2,6.3360547E2,2.6633545E2,4.7463867E1,8.369287E1,1.1969336E2,4.31333E1,5.976953E1,0E0,0E0,0E0,0E0,0E0,0E0,0E0,0E0,0E0,0E0,0E0,0E0,0E0,0E0,0E0,0E0,0E0,0E0,0E0,0E0,0E0,0E0,0E0,0E0,0E0,0E0,0E0,0E0,0E0,0E0,0E0,0E0,0E0,0E0,0E0,0E0,0E0,0E0,0E0,0E0,0E0,0E0,0E0,0E0,0E0,0E0,0E0,0E0,0E0,0E0,0E0,0E0,0E0,0E0,0E0,0E0,0E0,0E0,0E0,0E0,0E0,0E0,0E0,0E0],"parents":[2147483647,0,0,1,1,2,2,3,3,4,4,5,5,6,6,7,7,8,8,9,9,10,10,11,11,12,12,13,13,14,14,15,15,16,16,17,17,18,18,19,19,20,20,21,21,22,22,23,23,24,24,25,25,26,26,27,27,28,28,29,29,30,30,31,31,32,32,33,33,34,34,35,35,36,36,37,37,38,38,39,39,40,40,41,41,42,42,43,43,44,44,45,45,46,46,47,47,48,48,49,49,50,50,51,51,52,52,53,53,54,54,55,55,56,56,57,57,58,58,59,59,60,60,61,61,62,62],"right_children":[2,4,6,8,10,12,14,16,18,20,22,24,26,28,30,32,34,36,38,40,42,44,46,48,50,52,54,56,58,60,62,64,66,68,70,72,74,76,78,80,82,84,86,88,90,92,94,96,98,100,102,104,106,108,110,112,114,116,118,120,122,124,126,-1,-1,-1,-1,-1,-1,-1,-1,-1,-1,-1,-1,-1,-1,-1,-1,-1,-1,-1,-1,-1,-1,-1,-1,-1,-1,-1,-1,-1,-1,-1,-1,-1,-1,-1,-1,-1,-1,-1,-1,-1,-1,-1,-1,-1,-1,-1,-1,-1,-1,-1,-1,-1,-1,-1,-1,-1,-1,-1,-1,-1,-1,-1,-1],"split_conditions":[2.0833333E-1,8.571429E-2,4.2857143E-1,4.0816326E-2,5.765643E-1,5.9137315E-1,7E-1,5.725733E-1,5.6853104E-1,4.6E-1,1.5E-1,2.8703704E-1,7.581031E-1,3E1,3E1,2.3255814E-2,2.2727273E-2,3.8109756E-1,5E-1,3.8566226E-1,1.3513513E-1,3.8562092E-1,3.1111112E-1,4.007874E-1,3.0769232E-1,2E-1,3E0,4E0,6.9446546E-1,4.5756456E-1,3E0,3.7256977E-1,3.7663108E-1,1.6666668E-2,3.9825E4,5.777778E-1,5.294118E-1,1.40627E5,6.122449E-2,2.6143792E-1,1.5E-1,4.007874E-1,6.2952644E-1,7.647806E-1,6.924155E-1,7.499749E-1,7.3647493E-1,2.7906978E-1,1.7272727E-1,6.023392E-1,5.626243E-1,3E1,3.243243E-1,8E0,2.8E1,5.4E0,7.41461E-1,3.4615386E-1,8.027339E-1,4.1666665E0,8E-1,1.6444445E1,2.8703704E-1,-9.6183114E-2,-8.8510156E-2,-8.7691724E-2,-7.479077E-2,-8.519018E-2,-7.359713E-2,-6.500137E-2,-4.7918387E-2,-8.2228385E-2,-6.325992E-2,-6.48888E-2,-4.612898E-2,-4.973501E-2,1.3815044E-4,-3.5222024E-2,-1.2456065E-2,-7.749176E-2,-5.3663403E-2,-3.9719135E-2,-1.3026779E-2,-3.836639E-2,-1.1319137E-2,8.535925E-3,3.119821E-2,-2.1427259E-2,2.5468418E-2,5.455828E-3,2.7859136E-2,5.9649916E-3,5.7980645E-2,4.0449046E-2,7.492425E-2,-6.3229956E-2,-2.6977232E-2,-9.792923E-3,2.719894E-2,3.10159E-2,5.6007903E-2,6.019464E-2,8.258518E-2,4.1677114E-2,1.5018584E-2,6.4964764E-2,9.042902E-2,4.7658503E-2,1.7179483E-1,1.237221E-1,8.811495E-2,1.1970865E-1,7.174095E-2,1.3047843E-1,1.6805561E-1,5.9896987E-2,1.00431286E-1,1.1242347E-1,1.3905263E-1,1.8130338E-1,1.4454748E-1,1.7849037E-1,2.0523266E-1,1.3183112E-1,1.7801218E-1,9.634898E-2,1.4095996E-1],"split_indices":[1,1,1,1,9,9,1,9,9,7,1,7,9,14,14,1,1,9,7,9,1,7,7,9,1,7,14,14,9,7,2,9,9,1,8,7,7,8,1,9,1,9,7,9,9,9,9,9,7,7,7,14,1,4,14,6,9,7,9,2,1,6,7,0,0,0,0,0,0,0,0,0,0,0,0,0,0,0,0,0,0,0,0,0,0,0,0,0,0,0,0,0,0,0,0,0,0,0,0,0,0,0,0,0,0,0,0,0,0,0,0,0,0,0,0,0,0,0,0,0,0,0,0,0,0,0,0],"split_type":[0,0,0,0,0,0,0,0,0,0,0,0,0,0,0,0,0,0,0,0,0,0,0,0,0,0,0,0,0,0,0,0,0,0,0,0,0,0,0,0,0,0,0,0,0,0,0,0,0,0,0,0,0,0,0,0,0,0,0,0,0,0,0,0,0,0,0,0,0,0,0,0,0,0,0,0,0,0,0,0,0,0,0,0,0,0,0,0,0,0,0,0,0,0,0,0,0,0,0,0,0,0,0,0,0,0,0,0,0,0,0,0,0,0,0,0,0,0,0,0,0,0,0,0,0,0,0],"sum_hessian":[4.7390806E5,3.387345E5,1.3517358E5,1.8894252E5,1.4979197E5,8.422011E4,5.095346E4,8.604549E4,1.0289702E5,7.547399E4,7.4317984E4,3.4855004E4,4.936511E4,3.7693316E4,1.3260144E4,5.401618E4,3.2029316E4,5.790681E4,4.4990215E4,4.719029E4,2.8283705E4,4.4031207E4,3.0286775E4,1.165403E4,2.3200973E4,3.9481656E4,9.883453E3,2.6657068E4,1.1036248E4,9.455848E3,3.8042957E3,2.2127436E4,3.1888744E4,1.1707793E4,2.0321521E4,1.944936E4,3.845745E4,1.7831701E4,2.7158512E4,1.4597111E4,3.2593178E4,1.679815E4,1.1485555E4,1.5749028E4,2.8282178E4,1.059231E4,1.9694467E4,3.1128774E3,8.541152E3,1.4331121E4,8.869853E3,5.1610093E3,3.4320645E4,6.775939E2,9.205859E3,2.5907612E3,2.4066307E4,7.0789395E3,3.9573088E3,2.5566917E3,6.8991562E3,1.2377299E3,2.566566E3,8.527717E3,1.359972E4,1.1627013E4,2.026173E4,5.3245796E3,6.3832134E3,1.5339687E4,4.981836E3,1.3355596E4,6.093763E3,1.9711203E4,1.8746246E4,1.685432E4,9.773816E2,1.4439956E4,1.2718555E4,5.960221E3,8.636891E3,1.9271271E4,1.3321905E4,4.5949517E3,1.2203198E4,6.7727603E3,4.712794E3,1.4229388E4,1.5196406E3,1.918896E4,9.093217E3,9.052915E3,1.5393945E3,1.6116371E4,3.578095E3,1.2266451E3,1.8862323E3,4.3445386E3,4.196614E3,9.741523E3,4.589597E3,5.2126187E3,3.657234E3,2.7581155E3,2.4028938E3,2.1347525E4,1.2973119E4,6.6971674E2,7.8771453E0,6.432469E3,2.7733901E3,7.2484155E2,1.8659198E3,1.8073783E4,5.9925244E3,2.527124E3,4.5518154E3,3.0698086E3,8.8750024E2,1.3106364E3,1.2460554E3,3.425546E3,3.4736104E3,2.766033E2,9.611265E2,3.5886945E2,2.2076965E3],"tree_param":{"num_deleted":"0","num_feature":"15","num_nodes":"127","size_leaf_vector":"1"}},{"base_weights":[-1.4963126E-2,5.2307886E-1,-5.367694E-1,2.1125446E-1,1.0147408E0,-6.9177806E-1,-1.4150085E-1,-2.3837888E-1,3.716226E-1,8.6233413E-1,1.32355E0,-5.064343E-1,-8.103256E-1,-2.6291427E-1,1.204506E-1,-3.6541006E-1,9.285982E-2,6.267207E-1,1.7214423E-1,7.47756E-1,1.1033247E0,1.227592E0,1.5485846E0,-5.8522725E-1,-2.3973875E-1,-8.81752E-1,-7.082626E-1,-4.721751E-1,-1.8837766E-1,2.6753575E-1,-2.1684813E-1,-6.5228474E-1,-2.6364833E-1,-2.809761E-1,1.6766417E-1,2.1349387E0,5.9554553E-1,5.3277244E-3,4.1355672E-1,5.4132456E-1,8.6888736E-1,5.465292E-1,1.1436286E0,1.106281E0,1.3742478E0,1.4014347E0,1.6930246E0,-7.658757E-1,-5.0354E-1,-2.9967704E-1,9.630765E-3,-8.018182E-1,-9.2253864E-1,-7.661862E-1,-6.519274E-1,-6.118473E-1,-2.8879702E-1,-1.09900594E-1,-4.8449615E-1,4.2649567E-2,4.2279333E-1,-1.06250964E-1,-5.157064E-1,6.762625E-2,-6.782619E-2,-4.447112E-3,-3.9555952E-2,-3.160227E-2,7.746007E-2,3.555227E-2,2.7718702E-3,5.824132E-2,2.3893742E-1,4.1256156E-2,8.409316E-2,-1.1201783E-2,2.2505917E-2,-9.000715E-3,4.631981E-2,6.935706E-2,3.6595743E-2,9.9478714E-2,7.0678286E-2,1.0921538E-1,3.790696E-2,1.0272149E-1,1.324736E-1,1.198495E-1,9.265542E-2,1.4750528E-1,1.1945374E-1,1.4417116E-1,9.667076E-2,1.7133851E-1,9.544147E-2,-8.679897E-2,-7.075416E-2,-3.862741E-2,-5.6796677E-2,-4.6231605E-2,-2.2776995E-2,-2.4099194E-2,8.535432E-3,-8.7016486E-2,-7.52122E-2,-9.5544815E-2,-8.8334166E-2,-8.190409E-2,-6.864082E-2,-5.979995E-2,-7.409865E-2,-7.663157E-2,-5.292238E-2,-1.0129658E-2,-5.259281E-2,-1.9438617E-2,2.7129857E-2,-3.9265316E-2,-6.7996815E-2,1.4299855E-2,-6.768815E-3,6.713867E-2,3.4070097E-2,-2.0325445E-2,8.0983015E-3,-3.9410643E-2,-6.9234364E-2],"categories":[],"categories_nodes":[],"categories_segments":[],"categories_sizes":[],"default_left":[0,0,0,0,0,0,0,0,0,0,0,0,0,0,0,0,0,0,0,0,0,0,0,0,0,0,0,0,0,0,0,0,0,0,0,0,0,0,0,0,0,0,0,0,0,0,0,0,0,0,0,0,0,0,0,0,0,0,0,0,0,0,0,0,0,0,0,0,0,0,0,0,0,0,0,0,0,0,0,0,0,0,0,0,0,0,0,0,0,0,0,0,0,0,0,0,0,0,0,0,0,0,0,0,0,0,0,0,0,0,0,0,0,0,0,0,0,0,0,0,0,0,0,0,0,0,0],"id":5,"left_children":[1,3,5,7,9,11,13,15,17,19,21,23,25,27,29,31,33,35,37,39,41,43,45,47,49,51,53,55,57,59,61,63,65,67,69,71,73,75,77,79,81,83,85,87,89,91,93,95,97,99,101,103,105,107,109,111,113,115,117,119,121,123,125,-1,-1,-1,-1,-1,-1,-1,-1,-1,-1,-1,-1,-1,-1,-1,-1,-1,-1,-1,-1,-1,-1,-1,-1,-1,-1,-1,-1,-1,-1,-1,-1,-1,-1,-1,-1,-1,-1,-1,-1,-1,-1,-1,-1,-1,-1,-1,-1,-1,-1,-1,-1,-1,-1,-1,-1,-1,-1,-1,-1,-1,-1,-1,-1],"loss_changes":[1.3194625E5,3.5474094E4,1.4618055E4,1.0209619E4,4.225172E3,3.7651016E3,2.1375713E3,1.5663333E3,5.310711E3,1.6594297E3,6.388242E2,1.4047695E3,7.6134375E2,7.162129E2,1.0560936E3,7.852864E2,2.8861896E2,2.152086E3,2.3586711E3,1.0186289E3,4.3413672E2,3.6864258E2,1.8607031E2,7.6118555E2,2.2792963E2,1.9971484E2,1.3993555E2,3.0873364E2,7.868966E2,5.1752795E2,2.1360397E2,2.4357495E2,5.7424304E2,6.3910446E1,2.2606389E2,3.648252E2,2.0144658E3,8.9311774E2,5.983181E2,4.022002E2,5.2344727E2,1.1924536E2,3.795078E2,1.8769629E2,1.6880078E2,7.5609375E1,6.55791E1,9.5100586E1,2.6829785E2,1.4367456E2,5.611955E1,6.992871E1,5.1660156E1,8.888867E1,1.04375E2,8.695996E1,2.3188034E2,8.6223145E2,1.2709277E2,6.705292E1,1.7872253E2,8.573166E1,3.7224457E1,0E0,0E0,0E0,0E0,0E0,0E0,0E0,0E0,0E0,0E0,0E0,0E0,0E0,0E0,0E0,0E0,0E0,0E0,0E0,0E0,0E0,0E0,0E0,0E0,0E0,0E0,0E0,0E0,0E0,0E0,0E0,0E0,0E0,0E0,0E0,0E0,0E0,0E0,0E0,0E0,0E0,0E0,0E0,0E0,0E0,0E0,0E0,0E0,0E0,0E0,0E0,0E0,0E0,0E0,0E0,0E0,0E0,0E0,0E0,0E0,0E0,0E0,0E0,0E0],"parents":[2147483647,0,0,1,1,2,2,3,3,4,4,5,5,6,6,7,7,8,8,9,9,10,10,11,11,12,12,13,13,14,14,15,15,16,16,17,17,18,18,19,19,20,20,21,21,22,22,23,23,24,24,25,25,26,26,27,27,28,28,29,29,30,30,31,31,32,32,33,33,34,34,35,35,36,36,37,37,38,38,39,39,40,40,41,41,42,42,43,43,44,44,45,45,46,46,47,47,48,48,49,49,50,50,51,51,52,52,53,53,54,54,55,55,56,56,57,57,58,58,59,59,60,60,61,61,62,62],"right_children":[2,4,6,8,10,12,14,16,18,20,22,24,26,28,30,32,34,36,38,40,42,44,46,48,50,52,54,56,58,60,62,64,66,68,70,72,74,76,78,80,82,84,86,88,90,92,94,96,98,100,102,104,106,108,110,112,114,116,118,120,122,124,126,-1,-1,-1,-1,-1,-1,-1,-1,-1,-1,-1,-1,-1,-1,-1,-1,-1,-1,-1,-1,-1,-1,-1,-1,-1,-1,-1,-1,-1,-1,-1,-1,-1,-1,-1,-1,-1,-1,-1,-1,-1,-1,-1,-1,-1,-1,-1,-1,-1,-1,-1,-1,-1,-1,-1,-1,-1,-1,-1,-1,-1,-1,-1,-1],"split_conditions":[4E0,2.647059E-1,1.1363637E-1,4.778761E-1,5.4545456E-1,1E1,2.0833333E-1,2E0,2E0,5.8035713E-1,6.535433E-1,2E0,4.5454547E-2,4.822602E-1,7E0,2.7906978E-1,2.9216868E-1,1E0,2E0,5.935383E-1,3E0,7E-1,7E-1,4.3870968E-1,4E0,2E1,5.508021E-1,2E0,1E1,4E0,1.2E1,1E0,2E0,2E1,2E0,5E0,5.068493E-1,6.520087E-1,3E0,2E0,2E0,1E0,6.8366015E-1,3E1,3E1,3E0,3E0,2.7272728E-1,6E0,4.838051E-1,3E0,4.7664908E-1,2.5E-2,2E0,1.7E1,3.2045454E-1,8E0,4E0,1.7E1,5E0,8.076923E0,2.7E1,1.7E1,6.762625E-2,-6.782619E-2,-4.447112E-3,-3.9555952E-2,-3.160227E-2,7.746007E-2,3.555227E-2,2.7718702E-3,5.824132E-2,2.3893742E-1,4.1256156E-2,8.409316E-2,-1.1201783E-2,2.2505917E-2,-9.000715E-3,4.631981E-2,6.935706E-2,3.6595743E-2,9.9478714E-2,7.0678286E-2,1.0921538E-1,3.790696E-2,1.0272149E-1,1.324736E-1,1.198495E-1,9.265542E-2,1.4750528E-1,1.1945374E-1,1.4417116E-1,9.667076E-2,1.7133851E-1,9.544147E-2,-8.679897E-2,-7.075416E-2,-3.862741E-2,-5.6796677E-2,-4.6231605E-2,-2.2776995E-2,-2.4099194E-2,8.535432E-3,-8.7016486E-2,-7.52122E-2,-9.5544815E-2,-8.8334166E-2,-8.190409E-2,-6.864082E-2,-5.979995E-2,-7.409865E-2,-7.663157E-2,-5.292238E-2,-1.0129658E-2,-5.259281E-2,-1.9438617E-2,2.7129857E-2,-3.9265316E-2,-6.7996815E-2,1.4299855E-2,-6.768815E-3,6.713867E-2,3.4070097E-2,-2.0325445E-2,8.0983015E-3,-3.9410643E-2,-6.9234364E-2],"split_indices":[3,1,1,9,1,3,1,0,3,7,7,0,1,9,3,9,9,14,0,9,14,1,1,9,0,3,9,0,3,0,3,14,3,11,3,6,7,9,14,3,3,14,9,14,14,3,3,9,3,9,14,9,1,0,3,9,3,0,3,3,6,5,3,0,0,0,0,0,0,0,0,0,0,0,0,0,0,0,0,0,0,0,0,0,0,0,0,0,0,0,0,0,0,0,0,0,0,0,0,0,0,0,0,0,0,0,0,0,0,0,0,0,0,0,0,0,0,0,0,0,0,0,0,0,0,0,0],"split_type":[0,0,0,0,0,0,0,0,0,0,0,0,0,0,0,0,0,0,0,0,0,0,0,0,0,0,0,0,0,0,0,0,0,0,0,0,0,0,0,0,0,0,0,0,0,0,0,0,0,0,0,0,0,0,0,0,0,0,0,0,0,0,0,0,0,0,0,0,0,0,0,0,0,0,0,0,0,0,0,0,0,0,0,0,0,0,0,0,0,0,0,0,0,0,0,0,0,0,0,0,0,0,0,0,0,0,0,0,0,0,0,0,0,0,0,0,0,0,0,0,0,0,0,0,0,0,0],"sum_hessian":[4.699696E5,2.313851E5,2.3858452E5,1.415879E5,8.979719E4,1.7137662E5,6.720788E4,3.722304E4,1.0436487E5,6.012665E4,2.9670535E4,6.685581E4,1.0452082E5,4.5922836E4,2.128505E4,2.690484E4,1.03182E4,4.5796703E4,5.8568164E4,4.075427E4,1.937238E4,2.0805307E4,8.865229E3,5.160759E4,1.5248223E4,6.1484617E4,4.30362E4,1.2059781E4,3.386305E4,1.4821903E4,6.4631484E3,7.0434277E3,1.9861412E4,1.719953E3,8.598247E3,9.260891E2,4.4870613E4,3.463579E4,2.3932377E4,1.5072781E4,2.5681488E4,1.3086123E3,1.8063768E4,1.1391234E4,9.414072E3,4.3967227E3,4.4685063E3,1.6067192E4,3.5540395E4,1.2293229E4,2.9549944E3,2.0780193E4,4.070442E4,2.1212756E4,2.1823443E4,6.8443555E3,5.2154263E3,2.676989E4,7.0931626E3,6.0540547E3,8.767849E3,4.71839E3,1.7447583E3,1.34599E2,6.9088286E3,7.4628467E3,1.2398565E4,1.6653613E3,5.459172E1,3.6700903E3,4.928157E3,1.3086432E2,7.952248E2,2.5705066E4,1.9165547E4,2.257846E4,1.2057328E4,2.147476E3,2.17849E4,8.0666846E3,7.0060967E3,1.4452053E4,1.1229436E4,3.0601566E2,1.0025966E3,1.0999857E4,7.0639106E3,7.5247686E3,3.8664653E3,6.0264463E3,3.3876257E3,4.0217913E3,3.7493112E2,4.347348E3,1.21158455E2,5.8364995E3,1.0230692E4,1.2604818E4,2.2935578E4,3.767192E3,8.526036E3,6.851539E2,2.2698403E3,8.741543E3,1.2038651E4,2.2114176E4,1.8590248E4,1.2753804E4,8.458952E3,1.3597478E4,8.225966E3,2.3822869E3,4.4620684E3,2.9132974E3,2.302129E3,2.1913637E4,4.8562524E3,4.827812E3,2.2653503E3,3.1703848E3,2.8836697E3,2.174827E3,6.593022E3,3.1080596E3,1.6103307E3,1.035283E3,7.094753E2],"tree_param":{"num_deleted":"0","num_feature":"15","num_nodes":"127","size_leaf_vector":"1"}},{"base_weights":[-1.671922E-2,-3.8218194E-1,5.6972027E-1,-6.081664E-1,-1.403038E-1,3.1953636E-1,9.0990263E-1,-7.4830544E-1,-5.0004613E-1,-3.331491E-1,8.611856E-3,1.4486538E-1,5.0515914E-1,8.033898E-1,1.2216752E0,-8.1614286E-1,-6.436711E-1,-6.020665E-1,-3.314663E-1,-5.538409E-1,-2.4959101E-1,-1.102778E-1,1.1592057E-1,-9.310727E-2,2.78618E-1,4.446096E-1,7.323358E-1,5.712827E-1,8.6448073E-1,1.1375546E0,1.3853142E0,-8.7704396E-1,-7.616257E-1,-7.4426603E-1,-5.80565E-1,-8.1543297E-1,-5.637734E-1,-3.929775E-1,-1.8652962E-1,-6.216395E-1,-3.3914086E-1,-3.4923202E-1,-1.4553182E-1,-2.0181358E-1,-5.2176127E-3,4.560357E-2,2.9676953E-1,-4.067764E-1,2.4666177E-2,1.6814178E-1,3.5104105E-1,5.185635E-1,2.5697494E-1,6.7084867E-1,1.0128562E0,6.457785E-1,4.1824836E-1,9.3333095E-1,6.856797E-1,9.009591E-1,1.1932375E0,1.1848478E0,1.4779617E0,-9.448824E-2,-8.5079595E-2,-8.533379E-2,-7.136645E-2,-7.75541E-2,-6.198249E-2,-6.26203E-2,-4.33556E-2,-8.415723E-2,-6.751774E-2,-5.679171E-2,2.4208771E-2,-4.691201E-2,-3.3507835E-2,-2.8221643E-2,-9.642869E-3,-7.92075E-2,-5.5813577E-2,-4.0890075E-2,-1.9670576E-2,-4.207429E-2,-2.2941478E-2,-2.4273112E-2,-2.2622056E-3,-2.6439324E-2,-1.2071704E-2,-4.1273995E-3,3.1397156E-2,1.0447503E-2,-1.0650623E-2,2.5853435E-2,6.462359E-2,-6.3109785E-2,-2.7440399E-2,1.20187625E-2,-8.929064E-3,1.1432736E-2,3.239738E-2,4.103853E-2,1.9169096E-2,2.2362247E-2,5.807194E-2,1.985756E-2,3.788964E-2,3.1241E-2,7.12683E-2,5.6050528E-2,1.0642014E-1,4.0098805E-2,6.951376E-2,3.3679914E-2,5.8353115E-2,5.4690927E-2,9.7800046E-2,6.33322E-2,8.845521E-2,8.399143E-2,1.1401146E-1,7.764492E-2,1.2213554E-1,1.3293967E-1,1.029212E-1,1.64653E-1,1.4224051E-1],"categories":[],"categories_nodes":[],"categories_segments":[],"categories_sizes":[],"default_left":[0,0,0,0,0,0,0,0,0,0,0,0,0,0,0,0,0,0,0,0,0,0,0,0,0,0,0,0,0,0,0,0,0,0,0,0,0,0,0,0,0,0,0,0,0,0,0,0,0,0,0,0,0,0,0,0,0,0,0,0,0,0,0,0,0,0,0,0,0,0,0,0,0,0,0,0,0,0,0,0,0,0,0,0,0,0,0,0,0,0,0,0,0,0,0,0,0,0,0,0,0,0,0,0,0,0,0,0,0,0,0,0,0,0,0,0,0,0,0,0,0,0,0,0,0,0,0],"id":6,"left_children":[1,3,5,7,9,11,13,15,17,19,21,23,25,27,29,31,33,35,37,39,41,43,45,47,49,51,53,55,57,59,61,63,65,67,69,71,73,75,77,79,81,83,85,87,89,91,93,95,97,99,101,103,105,107,109,111,113,115,117,119,121,123,125,-1,-1,-1,-1,-1,-1,-1,-1,-1,-1,-1,-1,-1,-1,-1,-1,-1,-1,-1,-1,-1,-1,-1,-1,-1,-1,-1,-1,-1,-1,-1,-1,-1,-1,-1,-1,-1,-1,-1,-1,-1,-1,-1,-1,-1,-1,-1,-1,-1,-1,-1,-1,-1,-1,-1,-1,-1,-1,-1,-1,-1,-1,-1,-1],"loss_changes":[9.977762E4,1.5677273E4,1.5211789E4,2.2463008E3,3.9784294E3,3.3393096E3,2.514332E3,4.5783984E2,1.4393867E3,1.1130146E3,9.9732935E2,1.6890265E3,6.8650586E2,8.0008594E2,2.6390234E2,1.2939062E2,1.6083301E2,4.255879E2,2.8128906E2,2.4109619E2,4.5396606E2,3.566427E2,5.224909E2,7.0537976E2,2.7174365E2,5.4695996E2,1.8053418E2,1.3387793E2,5.495625E2,1.668125E2,1.197793E2,3.213086E1,9.034082E1,3.7618652E1,1.0449365E2,2.8513184E1,1.4777734E2,9.751831E1,8.105896E1,1.3590625E2,3.947296E1,1.915586E2,2.5590298E2,1.00546326E2,1.9874959E2,2.6495157E2,1.5353333E2,1.5459985E2,1.5112906E2,1.1278412E2,1.9395508E2,5.1829297E2,7.930182E1,1.2903857E2,4.322766E1,9.5325195E1,5.1706482E1,5.5641016E2,1.2885938E2,3.454602E1,1.1990723E2,4.527466E1,3.9529297E1,0E0,0E0,0E0,0E0,0E0,0E0,0E0,0E0,0E0,0E0,0E0,0E0,0E0,0E0,0E0,0E0,0E0,0E0,0E0,0E0,0E0,0E0,0E0,0E0,0E0,0E0,0E0,0E0,0E0,0E0,0E0,0E0,0E0,0E0,0E0,0E0,0E0,0E0,0E0,0E0,0E0,0E0,0E0,0E0,0E0,0E0,0E0,0E0,0E0,0E0,0E0,0E0,0E0,0E0,0E0,0E0,0E0,0E0,0E0,0E0,0E0,0E0,0E0,0E0],"parents":[2147483647,0,0,1,1,2,2,3,3,4,4,5,5,6,6,7,7,8,8,9,9,10,10,11,11,12,12,13,13,14,14,15,15,16,16,17,17,18,18,19,19,20,20,21,21,22,22,23,23,24,24,25,25,26,26,27,27,28,28,29,29,30,30,31,31,32,32,33,33,34,34,35,35,36,36,37,37,38,38,39,39,40,40,41,41,42,42,43,43,44,44,45,45,46,46,47,47,48,48,49,49,50,50,51,51,52,52,53,53,54,54,55,55,56,56,57,57,58,58,59,59,60,60,61,61,62,62],"right_children":[2,4,6,8,10,12,14,16,18,20,22,24,26,28,30,32,34,36,38,40,42,44,46,48,50,52,54,56,58,60,62,64,66,68,70,72,74,76,78,80,82,84,86,88,90,92,94,96,98,100,102,104,106,108,110,112,114,116,118,120,122,124,126,-1,-1,-1,-1,-1,-1,-1,-1,-1,-1,-1,-1,-1,-1,-1,-1,-1,-1,-1,-1,-1,-1,-1,-1,-1,-1,-1,-1,-1,-1,-1,-1,-1,-1,-1,-1,-1,-1,-1,-1,-1,-1,-1,-1,-1,-1,-1,-1,-1,-1,-1,-1,-1,-1,-1,-1,-1,-1,-1,-1,-1,-1,-1,-1],"split_conditions":[1.724138E-1,7.317073E-2,3.529412E-1,3.7037037E-2,5.498721E-1,6.1406845E-1,6.4285713E-1,5.6387764E-1,5.905596E-1,3.604651E-1,1.1363637E-1,6E0,7.581031E-1,5.5265343E-1,8E-1,2.3255814E-2,2.173913E-2,2.7906978E-1,3.9825E4,1.4E1,1.1363637E-1,6.504937E-1,6.9603753E-1,4.0660557E-1,2.2727273E-1,3E1,3.7945E5,3E1,3E1,5.813068E-1,7E0,3.148148E-1,3.604651E-1,3.9825E4,3.9825E4,2.8E1,2.1E1,5.263158E-2,5.5555556E-2,2E-1,2.8E1,1.4E1,9E0,1.4E1,1.52657E5,3E1,2.64683E5,2.7272728E-1,3E1,2.5E1,3E1,5E0,3.9825E4,4E0,4E0,6E0,9E0,4E0,7.6100576E-1,1.6E1,4E0,4.1666665E0,2.3333333E0,-9.448824E-2,-8.5079595E-2,-8.533379E-2,-7.136645E-2,-7.75541E-2,-6.198249E-2,-6.26203E-2,-4.33556E-2,-8.415723E-2,-6.751774E-2,-5.679171E-2,2.4208771E-2,-4.691201E-2,-3.3507835E-2,-2.8221643E-2,-9.642869E-3,-7.92075E-2,-5.5813577E-2,-4.0890075E-2,-1.9670576E-2,-4.207429E-2,-2.2941478E-2,-2.4273112E-2,-2.2622056E-3,-2.6439324E-2,-1.2071704E-2,-4.1273995E-3,3.1397156E-2,1.0447503E-2,-1.0650623E-2,2.5853435E-2,6.462359E-2,-6.3109785E-2,-2.7440399E-2,1.20187625E-2,-8.929064E-3,1.1432736E-2,3.239738E-2,4.103853E-2,1.9169096E-2,2.2362247E-2,5.807194E-2,1.985756E-2,3.788964E-2,3.1241E-2,7.12683E-2,5.6050528E-2,1.0642014E-1,4.0098805E-2,6.951376E-2,3.3679914E-2,5.8353115E-2,5.4690927E-2,9.7800046E-2,6.33322E-2,8.845521E-2,8.399143E-2,1.1401146E-1,7.764492E-2,1.2213554E-1,1.3293967E-1,1.029212E-1,1.64653E-1,1.4224051E-1],"split_indices":[1,1,1,1,9,9,1,9,9,9,1,5,9,9,1,1,1,9,8,5,1,9,9,9,1,14,8,14,14,9,5,9,9,8,8,5,11,1,1,9,5,5,5,5,8,14,8,9,14,5,14,14,8,14,14,14,5,14,9,5,14,2,2,0,0,0,0,0,0,0,0,0,0,0,0,0,0,0,0,0,0,0,0,0,0,0,0,0,0,0,0,0,0,0,0,0,0,0,0,0,0,0,0,0,0,0,0,0,0,0,0,0,0,0,0,0,0,0,0,0,0,0,0,0,0,0,0],"split_type":[0,0,0,0,0,0,0,0,0,0,0,0,0,0,0,0,0,0,0,0,0,0,0,0,0,0,0,0,0,0,0,0,0,0,0,0,0,0,0,0,0,0,0,0,0,0,0,0,0,0,0,0,0,0,0,0,0,0,0,0,0,0,0,0,0,0,0,0,0,0,0,0,0,0,0,0,0,0,0,0,0,0,0,0,0,0,0,0,0,0,0,0,0,0,0,0,0,0,0,0,0,0,0,0,0,0,0,0,0,0,0,0,0,0,0,0,0,0,0,0,0,0,0,0,0,0,0],"sum_hessian":[4.655485E5,2.8681122E5,1.787373E5,1.4827644E5,1.3853477E5,1.0299358E5,7.574372E4,6.4573812E4,8.370263E4,6.0363277E4,7.817149E4,5.306305E4,4.993053E4,5.6458883E4,1.9284834E4,3.91712E4,2.5402611E4,5.2143875E4,3.1558754E4,1.6576412E4,4.3786863E4,3.7084617E4,4.108688E4,1.9093033E4,3.3970016E4,3.9425406E4,1.0505122E4,1.1765969E4,4.4692914E4,1.2742405E4,6.542428E3,1.8495156E4,2.0676043E4,9.788445E3,1.5614167E4,7.9312456E3,4.421263E4,2.215461E4,9.4041455E3,1.2596694E4,3.9797185E3,2.236709E4,2.1419775E4,1.9817395E4,1.726722E4,2.9585002E4,1.1501876E4,5.2112695E3,1.3881765E4,1.3452499E4,2.0517518E4,2.8278156E4,1.1147251E4,8.619263E3,1.8858595E3,7.9115E3,3.854469E3,3.226466E4,1.2428254E4,2.430871E3,1.0311534E4,2.0722898E3,4.470138E3,5.1499805E3,1.3345175E4,7.094E3,1.3582044E4,7.8182974E3,1.9701477E3,1.1912694E4,3.7014724E3,6.6810933E3,1.2501521E3,4.3986746E4,2.2588205E2,9.566586E3,1.2588022E4,4.559666E3,4.8444795E3,3.416308E3,9.180387E3,2.670116E3,1.3096025E3,1.4005583E4,8.361506E3,1.1960341E4,9.459435E3,1.1184448E4,8.632946E3,1.5515432E4,1.7517903E3,2.1329936E4,8.255067E3,1.0369127E4,1.1327489E3,1.9325521E3,3.2787173E3,7.5516924E3,6.3300723E3,1.0000646E4,3.4518518E3,1.4948796E4,5.568722E3,4.922864E3,2.3355291E4,7.5388403E3,3.6084111E3,9.017226E2,7.71754E3,1.9345303E2,1.6924065E3,1.3291017E3,6.582398E3,2.584097E3,1.270372E3,3.3446245E3,2.8920035E4,9.841451E3,2.5868025E3,1.9401554E3,4.9071567E2,6.53494E2,9.65804E3,1.0705043E3,1.0017855E3,1.1009691E3,3.3691692E3],"tree_param":{"num_deleted":"0","num_feature":"15","num_nodes":"127","size_leaf_vector":"1"}},{"base_weights":[-1.6072059E-2,4.2457145E-1,-4.930494E-1,1.5175296E-1,7.412356E-1,-2.5397554E-1,-7.147144E-1,-2.1836191E-1,2.8198662E-1,6.071051E-1,1.0001221E0,-3.9466324E-1,1.2927572E-1,-5.968506E-1,-8.3488286E-1,-5.1112217E-1,-1.1463763E-1,4.9902034E-1,9.971283E-2,3.070837E-1,6.65145E-1,8.8034976E-1,1.2536565E0,-6.195213E-1,-3.0893704E-1,2.4864873E-1,-3.0961074E-2,-7.1042204E-1,-4.125905E-1,-8.706943E-1,-6.85866E-1,7.6018137E-1,-5.381663E-1,9.40945E-2,-2.577894E-1,1.8715338E0,4.7148994E-1,-7.389042E-3,2.7571142E-1,1.9523948E-1,5.5531454E-1,7.89172E-1,5.101617E-1,9.862817E-1,6.2490034E-1,1.2992E0,7.336993E-1,-6.699016E-1,-3.7590858E-1,-3.6522168E-1,-7.9734474E-2,1.6739994E-1,4.8271835E-1,-9.000307E-2,1.7760412E-1,-7.7066225E-1,-5.527799E-1,-4.9679428E-1,-2.6131627E-1,-9.0743715E-1,-7.912199E-1,-6.323641E-1,-8.1129926E-1,2.3308268E-1,-8.8198446E-2,-5.6118112E-2,2.9599596E-2,2.5810245E-1,3.8654592E-3,-3.359158E-2,-2.430019E-3,1.9306956E-1,-1.4922532E-2,7.57996E-4,5.31169E-2,-8.901706E-3,1.6859299E-2,1.8916115E-2,4.8469167E-2,7.246627E-2,1.2722251E-2,3.588682E-2,7.116351E-2,7.047133E-2,9.724053E-2,3.9782967E-2,6.760896E-2,1.0680991E-1,8.141601E-2,5.056098E-2,8.3310865E-2,9.022415E-2,1.3415876E-1,4.6962146E-2,8.5029684E-2,-8.0645E-2,-6.0413774E-2,-3.196145E-2,-5.4255005E-2,-2.6216978E-2,-4.819488E-2,-1.355619E-2,2.0528732E-2,-2.4423623E-2,1.995212E-2,9.546097E-3,5.1142186E-2,-4.337635E-2,-7.2828294E-3,-5.7044506E-2,1.987513E-2,-8.9036725E-2,-7.503215E-2,-5.8667183E-2,-2.6193378E-2,-5.4474235E-2,-3.3274755E-2,-3.478607E-2,-1.7819773E-2,-8.6000465E-2,-9.407364E-2,-7.287788E-2,-8.9446776E-2,-6.808301E-2,-5.0988812E-2,-8.4914826E-2,-7.323038E-2],"categories":[],"categories_nodes":[],"categories_segments":[],"categories_sizes":[],"default_left":[0,0,0,0,0,0,0,0,0,0,0,0,0,0,0,0,0,0,0,0,0,0,0,0,0,0,0,0,0,0,0,0,0,0,0,0,0,0,0,0,0,0,0,0,0,0,0,0,0,0,0,0,0,0,0,0,0,0,0,0,0,0,0,0,0,0,0,0,0,0,0,0,0,0,0,0,0,0,0,0,0,0,0,0,0,0,0,0,0,0,0,0,0,0,0,0,0,0,0,0,0,0,0,0,0,0,0,0,0,0,0,0,0,0,0,0,0,0,0,0,0,0,0,0,0,0,0],"id":7,"left_children":[1,3,5,7,9,11,13,15,17,19,21,23,25,27,29,31,33,35,37,39,41,43,45,47,49,51,53,55,57,59,61,63,65,67,69,71,73,75,77,79,81,83,85,87,89,91,93,95,97,99,101,103,105,107,109,111,113,115,117,119,121,123,125,-1,-1,-1,-1,-1,-1,-1,-1,-1,-1,-1,-1,-1,-1,-1,-1,-1,-1,-1,-1,-1,-1,-1,-1,-1,-1,-1,-1,-1,-1,-1,-1,-1,-1,-1,-1,-1,-1,-1,-1,-1,-1,-1,-1,-1,-1,-1,-1,-1,-1,-1,-1,-1,-1,-1,-1,-1,-1,-1,-1,-1,-1,-1,-1],"loss_changes":[9.700095E4,2.072505E4,1.1744574E4,6.2118604E3,3.854746E3,5.7491973E3,1.6282773E3,1.0185514E3,3.771109E3,1.2733574E3,1.1494844E3,1.5032607E3,5.476775E2,1.2146934E3,3.0326172E2,3.021106E2,7.4015753E2,1.6433633E3,9.76699E2,3.2908142E2,1.1775547E3,6.958262E2,2.8686914E2,2.639541E2,7.2845654E2,3.1196985E2,1.5055138E2,3.4066602E2,2.8191138E2,1.3332422E2,7.3555664E1,4.7457117E2,1.651355E2,1.3893372E3,2.680235E2,1.02545166E2,1.181083E3,4.627612E2,3.5446387E2,2.943108E2,1.12826904E2,5.2608203E2,5.0753125E2,2.5530273E2,1.8702441E2,1.8680664E2,2.9811707E1,1.5968604E2,3.445392E1,5.452178E2,1.7719815E2,1.6112051E2,4.6941772E1,5.6222893E1,4.2784645E1,6.2601562E1,9.777124E1,1.1169458E2,5.690851E1,4.876172E1,9.2961914E1,4.5605957E1,9.234619E0,0E0,0E0,0E0,0E0,0E0,0E0,0E0,0E0,0E0,0E0,0E0,0E0,0E0,0E0,0E0,0E0,0E0,0E0,0E0,0E0,0E0,0E0,0E0,0E0,0E0,0E0,0E0,0E0,0E0,0E0,0E0,0E0,0E0,0E0,0E0,0E0,0E0,0E0,0E0,0E0,0E0,0E0,0E0,0E0,0E0,0E0,0E0,0E0,0E0,0E0,0E0,0E0,0E0,0E0,0E0,0E0,0E0,0E0,0E0,0E0,0E0,0E0,0E0,0E0],"parents":[2147483647,0,0,1,1,2,2,3,3,4,4,5,5,6,6,7,7,8,8,9,9,10,10,11,11,12,12,13,13,14,14,15,15,16,16,17,17,18,18,19,19,20,20,21,21,22,22,23,23,24,24,25,25,26,26,27,27,28,28,29,29,30,30,31,31,32,32,33,33,34,34,35,35,36,36,37,37,38,38,39,39,40,40,41,41,42,42,43,43,44,44,45,45,46,46,47,47,48,48,49,49,50,50,51,51,52,52,53,53,54,54,55,55,56,56,57,57,58,58,59,59,60,60,61,61,62,62],"right_children":[2,4,6,8,10,12,14,16,18,20,22,24,26,28,30,32,34,36,38,40,42,44,46,48,50,52,54,56,58,60,62,64,66,68,70,72,74,76,78,80,82,84,86,88,90,92,94,96,98,100,102,104,106,108,110,112,114,116,118,120,122,124,126,-1,-1,-1,-1,-1,-1,-1,-1,-1,-1,-1,-1,-1,-1,-1,-1,-1,-1,-1,-1,-1,-1,-1,-1,-1,-1,-1,-1,-1,-1,-1,-1,-1,-1,-1,-1,-1,-1,-1,-1,-1,-1,-1,-1,-1,-1,-1,-1,-1,-1,-1,-1,-1,-1,-1,-1,-1,-1,-1,-1,-1,-1,-1,-1],"split_conditions":[4E0,3E0,9E0,4.778761E-1,3E0,3E0,1.7E1,2.972973E-1,2E0,5E0,6.5576327E-1,4.4823885E-1,6E0,2E0,1.8269E4,1E0,2E0,1E0,6.520087E-1,1.1E1,2E0,2E0,3E0,2E0,3.6617E4,8E0,8E0,1.0455E4,4E0,2E0,3.4E1,2E0,2E1,1E0,2E0,6.9E1,6E0,2E0,7.41461E-1,1E0,3E0,6.972211E-1,6E0,3E1,6.9446546E-1,4E0,2.2E1,2.7272728E-1,2.9E1,6E0,1.52657E5,3E0,2E0,2E0,1E0,2.6143792E-1,1.0006E5,2.3641E4,3.8E1,2.5E1,3.1E1,3E0,6.1746E4,2.3308268E-1,-8.8198446E-2,-5.6118112E-2,2.9599596E-2,2.5810245E-1,3.8654592E-3,-3.359158E-2,-2.430019E-3,1.9306956E-1,-1.4922532E-2,7.57996E-4,5.31169E-2,-8.901706E-3,1.6859299E-2,1.8916115E-2,4.8469167E-2,7.246627E-2,1.2722251E-2,3.588682E-2,7.116351E-2,7.047133E-2,9.724053E-2,3.9782967E-2,6.760896E-2,1.0680991E-1,8.141601E-2,5.056098E-2,8.3310865E-2,9.022415E-2,1.3415876E-1,4.6962146E-2,8.5029684E-2,-8.0645E-2,-6.0413774E-2,-3.196145E-2,-5.4255005E-2,-2.6216978E-2,-4.819488E-2,-1.355619E-2,2.0528732E-2,-2.4423623E-2,1.995212E-2,9.546097E-3,5.1142186E-2,-4.337635E-2,-7.2828294E-3,-5.7044506E-2,1.987513E-2,-8.9036725E-2,-7.503215E-2,-5.8667183E-2,-2.6193378E-2,-5.4474235E-2,-3.3274755E-2,-3.478607E-2,-1.7819773E-2,-8.6000465E-2,-9.407364E-2,-7.287788E-2,-8.9446776E-2,-6.808301E-2,-5.0988812E-2,-8.4914826E-2,-7.323038E-2],"split_indices":[3,0,3,9,4,0,3,9,3,14,7,9,3,0,8,14,3,14,9,0,3,3,3,0,8,0,0,8,0,0,3,3,11,14,0,5,14,0,9,14,14,9,0,14,9,14,5,9,5,3,8,14,14,14,14,9,8,8,5,3,3,0,8,0,0,0,0,0,0,0,0,0,0,0,0,0,0,0,0,0,0,0,0,0,0,0,0,0,0,0,0,0,0,0,0,0,0,0,0,0,0,0,0,0,0,0,0,0,0,0,0,0,0,0,0,0,0,0,0,0,0,0,0,0,0,0,0],"split_type":[0,0,0,0,0,0,0,0,0,0,0,0,0,0,0,0,0,0,0,0,0,0,0,0,0,0,0,0,0,0,0,0,0,0,0,0,0,0,0,0,0,0,0,0,0,0,0,0,0,0,0,0,0,0,0,0,0,0,0,0,0,0,0,0,0,0,0,0,0,0,0,0,0,0,0,0,0,0,0,0,0,0,0,0,0,0,0,0,0,0,0,0,0,0,0,0,0,0,0,0,0,0,0,0,0,0,0,0,0,0,0,0,0,0,0,0,0,0,0,0,0,0,0,0,0,0,0],"sum_hessian":[4.6151834E5,2.398963E5,2.2162205E5,1.2887069E5,1.1102562E5,1.0662509E5,1.14996945E5,3.3543047E4,9.532764E4,7.313652E4,3.7889094E4,7.799418E4,2.8630916E4,5.8058184E4,5.6938766E4,8.774167E3,2.4768879E4,4.351387E4,5.181377E4,1.1856068E4,6.1280453E4,2.5735729E4,1.2153364E4,2.152592E4,5.646826E4,1.6407285E4,1.222363E4,3.591721E4,2.214097E4,4.5902676E4,1.1036091E4,1.8219804E2,8.591969E3,1.00765E4,1.469238E4,8.543379E2,4.2659535E4,3.2212307E4,1.9601463E4,8.174644E3,3.6814246E3,3.4037496E4,2.7242957E4,1.8189777E4,7.545951E3,1.1173194E4,9.801696E2,1.783567E4,3.6902505E3,4.5334902E4,1.1133359E4,1.2180857E4,4.2264277E3,9.527182E3,2.6964482E3,2.5983994E4,9.933218E3,1.4222189E4,7.918781E3,3.138312E4,1.4519557E4,7.740518E3,3.295573E3,9.2912636E1,8.9285416E1,8.361596E3,2.3037268E2,2.1873866E2,9.857761E3,1.1008466E4,3.6839136E3,8.300802E2,2.4257687E1,4.862492E3,3.7797043E4,2.2005643E4,1.0206665E4,1.3862247E4,5.739216E3,9.295624E2,7.245082E3,1.6327996E3,2.048625E3,2.3301744E4,1.0735753E4,1.624715E4,1.0995808E4,1.2325629E4,5.8641484E3,4.7995386E3,2.7464128E3,1.0801251E3,1.0093069E4,3.0175717E2,6.784124E2,5.79402E3,1.2041648E4,2.7605955E3,9.296551E2,2.4079607E4,2.1255295E4,9.310273E3,1.8230859E3,8.812298E2,1.1299628E4,2.9194464E2,3.9344832E3,4.521883E2,9.074993E3,7.3418106E1,2.62303E3,3.7677976E3,2.2216197E4,8.895607E3,1.0376104E3,1.1003682E4,3.2185078E3,3.8778809E3,4.0409001E3,1.2955583E4,1.8427535E4,9.052774E3,5.4667812E3,5.5426343E3,2.1978835E3,2.2214602E3,1.0741128E3],"tree_param":{"num_deleted":"0","num_feature":"15","num_nodes":"127","size_leaf_vector":"1"}},{"base_weights":[-1.5879903E-2,3.7337542E-1,-4.647043E-1,1.812663E-1,7.039549E-1,-2.3339084E-1,-6.881043E-1,1.0691924E-1,6.2904084E-1,6.04381E-1,9.0283424E-1,-3.670629E-1,1.4958342E-2,-7.9165447E-1,-5.3082085E-1,2.798483E-1,-2.1567002E-2,3.8537818E-1,7.862481E-1,4.6455702E-1,6.9566196E-1,7.826918E-1,1.0345384E0,-4.560483E-1,-1.9576304E-1,-1.1239906E-1,1.9833404E-1,-7.043577E-1,-8.5579926E-1,-5.8721757E-1,-3.363265E-1,1.5490763E0,2.4838778E-1,-8.680829E-2,2.2969387E-1,4.7402152E-1,5.3116996E-2,8.593475E-1,4.230078E-1,5.615593E-1,3.3470577E-1,6.514667E-1,9.600658E-1,9.612626E-1,7.16404E-1,1.0987573E0,7.991779E-1,-5.354306E-1,-2.927313E-1,-2.5969017E-1,-1.8928802E-2,-3.8278446E-1,-5.6505565E-2,3.1064466E-1,4.2996354E-2,-7.6733863E-1,-5.955475E-1,-8.8555944E-1,-7.1119153E-1,-6.530893E-1,-4.907569E-1,-2.8479412E-1,-5.788698E-1,1.666958E-1,1.7646337E-2,5.2358704E-3,3.4449313E-2,-2.096478E-2,1.6660597E-3,1.0431415E-2,3.3902198E-2,5.629466E-2,2.491576E-2,1.8702617E-3,4.22879E-2,3.8543608E-2,9.200805E-2,4.8004888E-2,1.26103135E-2,1.5975647E-1,5.476262E-2,-5.4336112E-2,3.5556324E-2,6.880641E-2,4.494373E-2,8.764905E-2,1.2877975E-1,1.04993045E-1,8.198866E-2,7.891186E-2,5.9587356E-2,7.115605E-2,1.1270224E-1,7.285561E-2,1.2227912E-1,-6.2950924E-2,-4.830659E-2,-4.275997E-2,-5.9680264E-3,-3.311811E-2,-1.35643305E-2,8.056531E-3,-1.0615587E-2,-4.5897197E-2,-1.5411013E-3,-1.1917992E-2,1.35504035E-2,2.1103026E-2,4.5465123E-2,-5.26736E-3,1.6667899E-2,-7.922649E-2,-6.729857E-2,-6.428366E-2,-4.761033E-2,-9.266544E-2,-8.4331214E-2,-6.481812E-2,-7.788303E-2,-6.332754E-2,-8.114128E-2,-4.2194065E-2,-7.124107E-2,-3.610681E-2,-1.8809654E-2,-5.3609796E-2,-7.853978E-2],"categories":[],"categories_nodes":[],"categories_segments":[],"categories_sizes":[],"default_left":[0,0,0,0,0,0,0,0,0,0,0,0,0,0,0,0,0,0,0,0,0,0,0,0,0,0,0,0,0,0,0,0,0,0,0,0,0,0,0,0,0,0,0,0,0,0,0,0,0,0,0,0,0,0,0,0,0,0,0,0,0,0,0,0,0,0,0,0,0,0,0,0,0,0,0,0,0,0,0,0,0,0,0,0,0,0,0,0,0,0,0,0,0,0,0,0,0,0,0,0,0,0,0,0,0,0,0,0,0,0,0,0,0,0,0,0,0,0,0,0,0,0,0,0,0,0,0],"id":8,"left_children":[1,3,5,7,9,11,13,15,17,19,21,23,25,27,29,31,33,35,37,39,41,43,45,47,49,51,53,55,57,59,61,63,65,67,69,71,73,75,77,79,81,83,85,87,89,91,93,95,97,99,101,103,105,107,109,111,113,115,117,119,121,123,125,-1,-1,-1,-1,-1,-1,-1,-1,-1,-1,-1,-1,-1,-1,-1,-1,-1,-1,-1,-1,-1,-1,-1,-1,-1,-1,-1,-1,-1,-1,-1,-1,-1,-1,-1,-1,-1,-1,-1,-1,-1,-1,-1,-1,-1,-1,-1,-1,-1,-1,-1,-1,-1,-1,-1,-1,-1,-1,-1,-1,-1,-1,-1,-1],"loss_changes":[7.9834E4,1.5541332E4,1.0967406E4,5.1525493E3,1.7806328E3,3.4616392E3,1.7579883E3,2.9493193E3,8.4391406E2,7.6468555E2,4.7398633E2,1.0332178E3,8.52157E2,3.639453E2,4.6998535E2,2.2590176E3,1.2484141E3,2.5459094E2,3.5531348E2,2.9804883E2,4.2311523E2,1.8510547E2,2.1542969E2,5.782158E2,2.619984E2,3.254057E2,2.6089453E2,1.8854883E2,1.6085156E2,2.108125E2,1.20296875E2,2.2112451E2,1.0402178E3,7.6843567E2,2.151521E2,1.363158E2,2.317424E1,3.2056738E2,3.7977844E1,1.947373E2,1.856593E2,2.2942969E2,1.4105713E2,5.236841E1,9.988818E1,1.2221875E2,9.099658E1,1.4758203E2,4.586814E2,1.5091772E2,5.3425426E1,1.0323401E2,2.1477202E2,1.2441229E2,7.427826E1,4.054297E1,5.683203E1,5.323633E1,2.6810791E1,6.1416016E1,2.0542993E2,5.8574097E1,1.4489319E1,0E0,0E0,0E0,0E0,0E0,0E0,0E0,0E0,0E0,0E0,0E0,0E0,0E0,0E0,0E0,0E0,0E0,0E0,0E0,0E0,0E0,0E0,0E0,0E0,0E0,0E0,0E0,0E0,0E0,0E0,0E0,0E0,0E0,0E0,0E0,0E0,0E0,0E0,0E0,0E0,0E0,0E0,0E0,0E0,0E0,0E0,0E0,0E0,0E0,0E0,0E0,0E0,0E0,0E0,0E0,0E0,0E0,0E0,0E0,0E0,0E0,0E0,0E0,0E0],"parents":[2147483647,0,0,1,1,2,2,3,3,4,4,5,5,6,6,7,7,8,8,9,9,10,10,11,11,12,12,13,13,14,14,15,15,16,16,17,17,18,18,19,19,20,20,21,21,22,22,23,23,24,24,25,25,26,26,27,27,28,28,29,29,30,30,31,31,32,32,33,33,34,34,35,35,36,36,37,37,38,38,39,39,40,40,41,41,42,42,43,43,44,44,45,45,46,46,47,47,48,48,49,49,50,50,51,51,52,52,53,53,54,54,55,55,56,56,57,57,58,58,59,59,60,60,61,61,62,62],"right_children":[2,4,6,8,10,12,14,16,18,20,22,24,26,28,30,32,34,36,38,40,42,44,46,48,50,52,54,56,58,60,62,64,66,68,70,72,74,76,78,80,82,84,86,88,90,92,94,96,98,100,102,104,106,108,110,112,114,116,118,120,122,124,126,-1,-1,-1,-1,-1,-1,-1,-1,-1,-1,-1,-1,-1,-1,-1,-1,-1,-1,-1,-1,-1,-1,-1,-1,-1,-1,-1,-1,-1,-1,-1,-1,-1,-1,-1,-1,-1,-1,-1,-1,-1,-1,-1,-1,-1,-1,-1,-1,-1,-1,-1,-1,-1,-1,-1,-1,-1,-1,-1,-1,-1,-1,-1,-1],"split_conditions":[4E0,3E-1,9E0,2E0,5.714286E-1,1.5E-1,5.6603774E-2,2E0,5.294118E-1,4.1666666E-1,5.502958E-1,9.893E3,1.5E1,1.9E1,2.3641E4,1E0,3.017E4,3E0,3E0,2E0,4E0,2.857143E0,2E0,5.626243E-1,6.1746E4,2E-1,6E0,6.5E3,1.8906E4,9.52381E-2,2E1,6.1E1,3.0769232E-1,3.7209302E-1,1.5E-1,3E1,1.0006E5,4E0,2.6E1,1E0,2E0,3E0,7E0,3E1,3E1,4E0,4.2E1,7.8947365E-2,7.317073E-2,5.6094086E-1,6E0,3.6617E4,2.6307E4,2.9E1,2.7E1,6.9964665E-1,3.8001E4,2.5641026E-2,3.1E1,2.4E1,1.7E1,1.0344828E-1,3.6E1,1.666958E-1,1.7646337E-2,5.2358704E-3,3.4449313E-2,-2.096478E-2,1.6660597E-3,1.0431415E-2,3.3902198E-2,5.629466E-2,2.491576E-2,1.8702617E-3,4.22879E-2,3.8543608E-2,9.200805E-2,4.8004888E-2,1.26103135E-2,1.5975647E-1,5.476262E-2,-5.4336112E-2,3.5556324E-2,6.880641E-2,4.494373E-2,8.764905E-2,1.2877975E-1,1.04993045E-1,8.198866E-2,7.891186E-2,5.9587356E-2,7.115605E-2,1.1270224E-1,7.285561E-2,1.2227912E-1,-6.2950924E-2,-4.830659E-2,-4.275997E-2,-5.9680264E-3,-3.311811E-2,-1.35643305E-2,8.056531E-3,-1.0615587E-2,-4.5897197E-2,-1.5411013E-3,-1.1917992E-2,1.35504035E-2,2.1103026E-2,4.5465123E-2,-5.26736E-3,1.6667899E-2,-7.922649E-2,-6.729857E-2,-6.428366E-2,-4.761033E-2,-9.266544E-2,-8.4331214E-2,-6.481812E-2,-7.788303E-2,-6.332754E-2,-8.114128E-2,-4.2194065E-2,-7.124107E-2,-3.610681E-2,-1.8809654E-2,-5.3609796E-2,-7.853978E-2],"split_indices":[3,1,3,4,1,1,1,3,7,7,7,8,5,3,8,14,8,3,3,3,4,2,3,7,8,7,3,8,8,1,3,5,7,7,1,14,8,14,14,14,14,3,4,14,14,14,5,1,1,7,3,8,8,5,5,7,8,1,3,3,3,1,3,0,0,0,0,0,0,0,0,0,0,0,0,0,0,0,0,0,0,0,0,0,0,0,0,0,0,0,0,0,0,0,0,0,0,0,0,0,0,0,0,0,0,0,0,0,0,0,0,0,0,0,0,0,0,0,0,0,0,0,0,0,0,0,0],"split_type":[0,0,0,0,0,0,0,0,0,0,0,0,0,0,0,0,0,0,0,0,0,0,0,0,0,0,0,0,0,0,0,0,0,0,0,0,0,0,0,0,0,0,0,0,0,0,0,0,0,0,0,0,0,0,0,0,0,0,0,0,0,0,0,0,0,0,0,0,0,0,0,0,0,0,0,0,0,0,0,0,0,0,0,0,0,0,0,0,0,0,0,0,0,0,0,0,0,0,0,0,0,0,0,0,0,0,0,0,0,0,0,0,0,0,0,0,0,0,0,0,0,0,0,0,0,0,0],"sum_hessian":[4.5695662E5,2.4471819E5,2.1223842E5,1.5477536E5,8.994283E4,1.0427341E5,1.0796502E5,1.3273733E5,2.2038041E4,5.993762E4,3.0005203E4,6.7787055E4,3.6486348E4,6.51008E4,4.2864223E4,5.658229E4,7.615503E4,8.643908E3,1.3394134E4,2.3676334E4,3.626129E4,1.5694965E4,1.4310237E4,4.461116E4,2.3175895E4,2.1532244E4,1.4954106E4,2.7579254E4,3.7521547E4,3.322739E4,9.636831E3,1.367422E3,5.5214867E4,6.0457547E4,1.5697484E4,6.8231465E3,1.8207612E3,1.1149095E4,2.2450393E3,1.3550459E4,1.0125874E4,3.1071184E4,5.190106E3,4.2452617E3,1.1449703E4,1.1239765E4,3.070473E3,3.001817E4,1.4592992E4,1.702187E4,6.154025E3,3.6875981E3,1.7844645E4,8.678481E3,6.2756245E3,1.7464494E4,1.0114761E4,3.1113322E4,6.4082236E3,1.9740852E4,1.3486539E4,7.9499136E3,1.6869172E3,1.2590765E3,1.0834548E2,1.81649E4,3.704997E4,2.7640904E4,3.2816645E4,7.312879E3,8.384605E3,4.888448E3,1.9346985E3,1.6666902E3,1.540711E2,1.267316E3,9.881778E3,1.8827164E3,3.6232285E2,1.783119E2,1.3372147E4,2.3436629E2,9.891508E3,2.6303863E4,4.7673213E3,4.138433E3,1.0516729E3,2.6050227E3,1.640239E3,7.1379277E3,4.3117754E3,7.6645435E2,1.047331E4,2.6340603E3,4.364125E2,1.0729862E4,1.9288307E4,9.243104E3,5.3498887E3,1.0797414E4,6.224455E3,2.8748972E3,3.2791274E3,3.0539976E3,6.3360065E2,1.34536E4,4.391045E3,5.131386E3,3.5470952E3,3.538854E3,2.7367708E3,1.3809032E4,3.655462E3,7.242861E3,2.8718994E3,1.5761138E4,1.5352185E4,3.3231028E3,3.085121E3,1.7549562E4,2.1912903E3,1.0293612E4,3.192927E3,4.4427715E3,3.507142E3,1.400475E3,2.8644232E2],"tree_param":{"num_deleted":"0","num_feature":"15","num_nodes":"127","size_leaf_vector":"1"}},{"base_weights":[-1.4733031E-2,2.8619894E-1,-5.0639194E-1,-3.7376475E-2,4.7180173E-1,-6.7184174E-1,-2.7997288E-1,-3.34378E-1,8.5775636E-2,3.5849306E-1,6.9545764E-1,-5.557125E-1,-8.0412984E-1,-3.786281E-1,-1.21214375E-1,-5.976701E-1,-2.4721777E-1,2.2032085E-1,-1.3286898E-1,4.4157445E-1,1.6475576E-1,7.7447903E-1,5.1477766E-1,-6.094148E-1,-3.2395208E-1,-8.376723E-1,-6.5717876E-1,-4.628624E-1,-2.3789567E-1,-4.858587E-2,-3.9201698E-1,2.434073E-1,-6.172233E-1,-4.741599E-2,-3.4443432E-1,8.6943544E-2,3.681463E-1,-2.1481472E-1,2.0911451E-2,3.6835724E-1,6.747458E-1,5.6292657E-2,3.2179442E-1,5.866649E-1,8.563239E-1,8.3550483E-1,4.528374E-1,-6.7150575E-1,-4.52249E-1,-3.8664678E-1,-1.9922715E-1,-8.745825E-1,-7.4824536E-1,-5.8825535E-1,-7.5340223E-1,-5.8425975E-1,-3.9878416E-1,-1.8461663E-1,-4.3064797E-1,-1.828561E-1,9.198538E-2,-3.129632E-1,-6.211674E-1,1.409015E-1,-9.373725E-2,-7.46904E-2,-5.3019684E-2,1.4990072E-1,-9.771126E-3,-6.1009802E-2,-3.223926E-2,7.751691E-2,7.2158733E-3,2.93475E-2,6.2019706E-2,-5.9672393E-2,-1.950611E-2,-4.791707E-2,4.6909694E-3,5.316572E-3,4.09299E-2,2.8281212E-2,7.2495975E-2,-1.3734507E-2,1.1210096E-2,-1.647415E-2,3.5004932E-2,5.0822612E-2,7.64956E-2,7.8564815E-2,1.03933156E-1,-1.0979168E-2,8.612416E-2,-5.248579E-2,4.693963E-2,-5.683545E-2,-7.177423E-2,-3.3095866E-2,-5.0849568E-2,-2.925895E-2,-4.700981E-2,-9.101281E-3,-2.6871467E-2,-8.416838E-2,-9.249729E-2,-7.860124E-2,-6.983309E-2,-6.2005818E-2,-4.0118657E-2,-7.95665E-2,-6.693467E-2,-7.914999E-2,-5.3739246E-2,-2.4372932E-2,-5.104747E-2,-2.4157502E-2,1.7892619E-3,-3.717151E-2,-6.3184254E-2,-2.4697408E-2,-4.9999272E-3,1.731166E-2,-3.0213695E-3,-3.650384E-2,-9.08694E-3,-5.429725E-2,-8.077171E-2],"categories":[],"categories_nodes":[],"categories_segments":[],"categories_sizes":[],"default_left":[0,0,0,0,0,0,0,0,0,0,0,0,0,0,0,0,0,0,0,0,0,0,0,0,0,0,0,0,0,0,0,0,0,0,0,0,0,0,0,0,0,0,0,0,0,0,0,0,0,0,0,0,0,0,0,0,0,0,0,0,0,0,0,0,0,0,0,0,0,0,0,0,0,0,0,0,0,0,0,0,0,0,0,0,0,0,0,0,0,0,0,0,0,0,0,0,0,0,0,0,0,0,0,0,0,0,0,0,0,0,0,0,0,0,0,0,0,0,0,0,0,0,0,0,0,0,0],"id":9,"left_children":[1,3,5,7,9,11,13,15,17,19,21,23,25,27,29,31,33,35,37,39,41,43,45,47,49,51,53,55,57,59,61,63,65,67,69,71,73,75,77,79,81,83,85,87,89,91,93,95,97,99,101,103,105,107,109,111,113,115,117,119,121,123,125,-1,-1,-1,-1,-1,-1,-1,-1,-1,-1,-1,-1,-1,-1,-1,-1,-1,-1,-1,-1,-1,-1,-1,-1,-1,-1,-1,-1,-1,-1,-1,-1,-1,-1,-1,-1,-1,-1,-1,-1,-1,-1,-1,-1,-1,-1,-1,-1,-1,-1,-1,-1,-1,-1,-1,-1,-1,-1,-1,-1,-1,-1,-1,-1],"loss_changes":[6.694931E4,1.6857348E4,6.435754E3,3.742409E3,4.52016E3,1.5245391E3,1.1360781E3,6.88093E2,2.1277258E3,1.9056309E3,8.559707E2,6.577627E2,2.2817188E2,5.302285E2,5.4679565E2,1.22805664E2,4.3767236E2,8.827798E2,3.4722076E2,1.414375E3,6.052598E2,6.40916E2,3.622456E2,4.1852148E2,7.7706665E1,1.2403125E2,5.6777588E1,2.1746191E2,1.7196832E2,4.1381854E2,1.0631317E2,2.3552269E2,8.186548E1,5.7387506E2,8.856262E1,2.394616E2,3.9951855E2,1.354884E2,1.2456507E2,8.137676E2,3.8947266E2,2.2716876E2,1.9962207E2,1.7677148E2,3.7505664E2,7.1948E1,2.479646E2,1.4630957E2,8.276953E1,5.1814087E1,2.5012466E1,4.3541016E1,2.0268555E1,2.9685913E1,1.224646E1,9.3460205E1,3.1714453E2,1.514173E2,4.2772583E1,9.551047E1,1.06198364E2,5.054782E1,2.1545227E1,0E0,0E0,0E0,0E0,0E0,0E0,0E0,0E0,0E0,0E0,0E0,0E0,0E0,0E0,0E0,0E0,0E0,0E0,0E0,0E0,0E0,0E0,0E0,0E0,0E0,0E0,0E0,0E0,0E0,0E0,0E0,0E0,0E0,0E0,0E0,0E0,0E0,0E0,0E0,0E0,0E0,0E0,0E0,0E0,0E0,0E0,0E0,0E0,0E0,0E0,0E0,0E0,0E0,0E0,0E0,0E0,0E0,0E0,0E0,0E0,0E0,0E0,0E0,0E0],"parents":[2147483647,0,0,1,1,2,2,3,3,4,4,5,5,6,6,7,7,8,8,9,9,10,10,11,11,12,12,13,13,14,14,15,15,16,16,17,17,18,18,19,19,20,20,21,21,22,22,23,23,24,24,25,25,26,26,27,27,28,28,29,29,30,30,31,31,32,32,33,33,34,34,35,35,36,36,37,37,38,38,39,39,40,40,41,41,42,42,43,43,44,44,45,45,46,46,47,47,48,48,49,49,50,50,51,51,52,52,53,53,54,54,55,55,56,56,57,57,58,58,59,59,60,60,61,61,62,62],"right_children":[2,4,6,8,10,12,14,16,18,20,22,24,26,28,30,32,34,36,38,40,42,44,46,48,50,52,54,56,58,60,62,64,66,68,70,72,74,76,78,80,82,84,86,88,90,92,94,96,98,100,102,104,106,108,110,112,114,116,118,120,122,124,126,-1,-1,-1,-1,-1,-1,-1,-1,-1,-1,-1,-1,-1,-1,-1,-1,-1,-1,-1,-1,-1,-1,-1,-1,-1,-1,-1,-1,-1,-1,-1,-1,-1,-1,-1,-1,-1,-1,-1,-1,-1,-1,-1,-1,-1,-1,-1,-1,-1,-1,-1,-1,-1,-1,-1,-1,-1,-1,-1,-1,-1,-1,-1,-1],"split_conditions":[5E0,2E0,7.8947365E-2,4.778761E-1,4.2857143E-1,1.6E1,1.5E-1,2.7906978E-1,3E0,3E0,2E0,2E0,1.8269E4,9.893E3,1E1,1E0,2E0,6.262641E-1,6.5375125E-1,6.972211E-1,4E0,3.90625E-1,8.076923E0,1.0455E4,3E0,4E-2,2.9E1,3.75E-1,1.2E1,4E0,1.7E1,2E0,1.7538461E-1,1E0,4E0,1E0,7.41461E-1,3E0,3E0,4.2264152E-1,4E0,4.838051E-1,2E0,7.190476E-1,7.5E-1,1E0,2E0,8E0,8E0,9E0,8E0,3.5E1,3.202E3,1.0006E5,6.0621E4,3.247017E-1,8E0,3E0,2.3E1,1.5253E4,7E0,4.3E1,2.6E1,1.409015E-1,-9.373725E-2,-7.46904E-2,-5.3019684E-2,1.4990072E-1,-9.771126E-3,-6.1009802E-2,-3.223926E-2,7.751691E-2,7.2158733E-3,2.93475E-2,6.2019706E-2,-5.9672393E-2,-1.950611E-2,-4.791707E-2,4.6909694E-3,5.316572E-3,4.09299E-2,2.8281212E-2,7.2495975E-2,-1.3734507E-2,1.1210096E-2,-1.647415E-2,3.5004932E-2,5.0822612E-2,7.64956E-2,7.8564815E-2,1.03933156E-1,-1.0979168E-2,8.612416E-2,-5.248579E-2,4.693963E-2,-5.683545E-2,-7.177423E-2,-3.3095866E-2,-5.0849568E-2,-2.925895E-2,-4.700981E-2,-9.101281E-3,-2.6871467E-2,-8.416838E-2,-9.249729E-2,-7.860124E-2,-6.983309E-2,-6.2005818E-2,-4.0118657E-2,-7.95665E-2,-6.693467E-2,-7.914999E-2,-5.3739246E-2,-2.4372932E-2,-5.104747E-2,-2.4157502E-2,1.7892619E-3,-3.717151E-2,-6.3184254E-2,-2.4697408E-2,-4.9999272E-3,1.731166E-2,-3.0213695E-3,-3.650384E-2,-9.08694E-3,-5.429725E-2,-8.077171E-2],"split_indices":[3,0,1,9,1,3,1,9,3,3,3,0,8,8,3,14,3,9,9,9,0,7,6,8,0,1,3,7,3,0,3,3,9,14,14,14,9,14,14,9,14,9,14,9,1,14,14,3,3,3,3,3,8,8,8,9,3,0,3,8,3,5,3,0,0,0,0,0,0,0,0,0,0,0,0,0,0,0,0,0,0,0,0,0,0,0,0,0,0,0,0,0,0,0,0,0,0,0,0,0,0,0,0,0,0,0,0,0,0,0,0,0,0,0,0,0,0,0,0,0,0,0,0,0,0,0,0],"split_type":[0,0,0,0,0,0,0,0,0,0,0,0,0,0,0,0,0,0,0,0,0,0,0,0,0,0,0,0,0,0,0,0,0,0,0,0,0,0,0,0,0,0,0,0,0,0,0,0,0,0,0,0,0,0,0,0,0,0,0,0,0,0,0,0,0,0,0,0,0,0,0,0,0,0,0,0,0,0,0,0,0,0,0,0,0,0,0,0,0,0,0,0,0,0,0,0,0,0,0,0,0,0,0,0,0,0,0,0,0,0,0,0,0,0,0,0,0,0,0,0,0,0,0,0,0,0,0],"sum_hessian":[4.524931E5,2.8069016E5,1.7180294E5,1.023159E5,1.7837427E5,9.926539E4,7.253755E4,2.9989523E4,7.2326375E4,1.1839535E5,5.9978918E4,5.286395E4,4.640144E4,4.4736277E4,2.7801271E4,7.457173E3,2.253235E4,4.477414E4,2.7552234E4,8.286055E4,3.553481E4,4.1726375E4,1.8252545E4,4.2917668E4,9.94628E3,3.7774496E4,8.626944E3,2.7984242E4,1.6752035E4,2.1922812E4,5.878458E3,1.6916455E2,7.2880083E3,7.37551E3,1.5156841E4,2.3538146E4,2.1235992E4,1.7973963E4,9.578272E3,6.306145E4,1.9799098E4,2.1018889E4,1.4515919E4,1.2666959E4,2.9059414E4,2.9524165E3,1.5300128E4,3.0761549E4,1.215612E4,6.617702E3,3.3285781E3,2.673221E4,1.1042285E4,5.030667E3,3.5962773E3,9.665213E3,1.831903E4,1.3125852E4,3.6261836E3,1.1212555E4,1.0710259E4,4.3724043E3,1.5060541E3,8.503193E1,8.413263E1,2.9237136E3,4.3642944E3,2.31415E2,7.1440947E3,1.1591533E3,1.39976875E4,4.9394244E2,2.3044205E4,1.6384242E4,4.851749E3,8.825167E2,1.7091445E4,4.7248495E2,9.105788E3,7.249926E3,5.5811523E4,2.2493025E3,1.7549795E4,4.7022075E3,1.6316682E4,7.964581E2,1.3719461E4,8.799491E3,3.8674678E3,2.0967324E4,8.0920903E3,7.816575E1,2.8742507E3,2.54306E2,1.5045822E4,9.525023E3,2.1236525E4,3.8534429E3,8.302677E3,3.113269E3,3.5044329E3,1.3024913E3,2.0260868E3,1.6183852E4,1.0548358E4,6.277649E3,4.7646367E3,4.2977153E3,7.329521E2,2.3874246E3,1.2088528E3,1.7797107E3,7.8855024E3,7.671801E3,1.0647229E4,1.0244312E4,2.8815405E3,2.8068599E3,8.193237E2,7.5621357E3,3.6504187E3,6.436487E3,4.273772E3,3.5413953E3,8.310088E2,1.0639816E3,4.420724E2],"tree_param":{"num_deleted":"0","num_feature":"15","num_nodes":"127","size_leaf_vector":"1"}},{"base_weights":[-1.5601326E-2,2.52572E-1,-4.781387E-1,-3.44435E-2,4.136499E-1,-6.5570986E-1,-2.7325082E-1,-3.8754585E-1,5.3702783E-2,3.1979287E-1,6.345685E-1,-5.251098E-1,-7.77493E-1,-3.6563876E-1,-1.0958896E-1,-6.081522E-1,-3.0712098E-1,2.5351146E-1,-6.442327E-2,2.0017259E-1,4.2976418E-1,5.189376E-1,7.374401E-1,-5.777832E-1,-2.929181E-1,-8.433003E-1,-7.079699E-1,-5.4359996E-1,-3.181524E-1,-1.2620092E-2,-2.84724E-1,-6.2721574E-1,1.2608735E-1,-1.292209E-1,-3.9390638E-1,1.9843164E-1,6.072312E-1,-1.6738285E-1,5.6180645E-2,-1.2959131E-2,2.6015744E-1,3.472597E-1,5.7541144E-1,4.3757957E-1,6.9558764E-1,7.813056E-1,3.5875714E-1,-6.8176806E-1,-4.870937E-1,-4.328625E-1,-2.3855913E-1,-7.956188E-1,-8.833428E-1,-7.5275254E-1,-6.5854657E-1,-6.208152E-1,-3.2600257E-1,-2.0872678E-1,-4.1726574E-1,-1.6881749E-1,1.0770715E-1,-2.199092E-1,-5.294091E-1,-4.7349665E-2,-6.918047E-2,4.2755883E-2,-4.7874346E-2,1.3711176E-2,-2.1480983E-2,-4.6256255E-2,-3.0921552E-2,-2.117505E-4,2.6558548E-2,5.455023E-2,1.056533E-1,-5.370784E-3,-2.4014672E-2,1.7471418E-2,-2.550227E-3,-2.7730558E-2,5.0094696E-3,1.540283E-2,3.909265E-2,4.0724315E-2,1.9025614E-2,6.534365E-2,3.623924E-2,1.7388513E-2,4.83212E-2,8.7476276E-2,6.365038E-2,7.17349E-2,9.588259E-2,7.1612395E-2,3.1866707E-2,-8.087677E-2,-6.3952036E-2,-3.5521507E-2,-5.544963E-2,-5.6575608E-2,-3.5913955E-2,-1.29200695E-2,-3.131038E-2,-8.35893E-2,-7.439345E-2,-9.3505114E-2,-8.587353E-2,-8.116314E-2,-7.243898E-2,-7.0738345E-2,-6.1270326E-2,-8.281941E-2,-5.7356294E-2,-2.1615965E-2,-5.4789305E-2,-3.109683E-2,9.880903E-5,-3.6772322E-2,-5.9792973E-2,-3.3348702E-2,-8.198651E-3,2.9369835E-2,4.3078936E-3,-3.2478236E-2,-7.04861E-3,-4.4483475E-2,-6.940939E-2],"categories":[],"categories_nodes":[],"categories_segments":[],"categories_sizes":[],"default_left":[0,0,0,0,0,0,0,0,0,0,0,0,0,0,0,0,0,0,0,0,0,0,0,0,0,0,0,0,0,0,0,0,0,0,0,0,0,0,0,0,0,0,0,0,0,0,0,0,0,0,0,0,0,0,0,0,0,0,0,0,0,0,0,0,0,0,0,0,0,0,0,0,0,0,0,0,0,0,0,0,0,0,0,0,0,0,0,0,0,0,0,0,0,0,0,0,0,0,0,0,0,0,0,0,0,0,0,0,0,0,0,0,0,0,0,0,0,0,0,0,0,0,0,0,0,0,0],"id":10,"left_children":[1,3,5,7,9,11,13,15,17,19,21,23,25,27,29,31,33,35,37,39,41,43,45,47,49,51,53,55,57,59,61,63,65,67,69,71,73,75,77,79,81,83,85,87,89,91,93,95,97,99,101,103,105,107,109,111,113,115,117,119,121,123,125,-1,-1,-1,-1,-1,-1,-1,-1,-1,-1,-1,-1,-1,-1,-1,-1,-1,-1,-1,-1,-1,-1,-1,-1,-1,-1,-1,-1,-1,-1,-1,-1,-1,-1,-1,-1,-1,-1,-1,-1,-1,-1,-1,-1,-1,-1,-1,-1,-1,-1,-1,-1,-1,-1,-1,-1,-1,-1,-1,-1,-1,-1,-1,-1],"loss_changes":[5.554742E4,1.310523E4,5.9792617E3,3.1716245E3,3.7645723E3,1.399918E3,1.1537627E3,3.6097803E2,1.9246862E3,1.6762539E3,6.4358984E2,5.194619E2,2.0783594E2,4.1200342E2,4.6761057E2,7.618823E1,2.3029773E2,5.901605E2,6.3637616E2,7.803801E2,7.976133E2,3.6605518E2,4.7557812E2,3.262412E2,5.967572E1,4.3972656E1,4.855078E1,1.7238477E2,4.174995E2,3.3312537E2,1.5550159E2,5.2293945E1,2.5446955E1,1.115753E2,5.8161865E1,3.530797E2,1.1262842E2,2.2866522E2,2.2852823E2,2.2348637E2,6.61021E2,3.991001E2,3.987871E2,2.0996313E2,8.452124E1,2.9078418E2,4.2404907E1,8.602734E1,1.6425781E2,2.1323456E1,4.6116394E1,2.1631348E1,1.5369141E1,1.8814453E1,2.3168457E1,7.3806885E1,6.5505066E1,3.9241382E2,1.80604E2,1.1025E2,1.2033212E2,1.2156839E2,2.8302246E1,0E0,0E0,0E0,0E0,0E0,0E0,0E0,0E0,0E0,0E0,0E0,0E0,0E0,0E0,0E0,0E0,0E0,0E0,0E0,0E0,0E0,0E0,0E0,0E0,0E0,0E0,0E0,0E0,0E0,0E0,0E0,0E0,0E0,0E0,0E0,0E0,0E0,0E0,0E0,0E0,0E0,0E0,0E0,0E0,0E0,0E0,0E0,0E0,0E0,0E0,0E0,0E0,0E0,0E0,0E0,0E0,0E0,0E0,0E0,0E0,0E0,0E0,0E0,0E0],"parents":[2147483647,0,0,1,1,2,2,3,3,4,4,5,5,6,6,7,7,8,8,9,9,10,10,11,11,12,12,13,13,14,14,15,15,16,16,17,17,18,18,19,19,20,20,21,21,22,22,23,23,24,24,25,25,26,26,27,27,28,28,29,29,30,30,31,31,32,32,33,33,34,34,35,35,36,36,37,37,38,38,39,39,40,40,41,41,42,42,43,43,44,44,45,45,46,46,47,47,48,48,49,49,50,50,51,51,52,52,53,53,54,54,55,55,56,56,57,57,58,58,59,59,60,60,61,61,62,62],"right_children":[2,4,6,8,10,12,14,16,18,20,22,24,26,28,30,32,34,36,38,40,42,44,46,48,50,52,54,56,58,60,62,64,66,68,70,72,74,76,78,80,82,84,86,88,90,92,94,96,98,100,102,104,106,108,110,112,114,116,118,120,122,124,126,-1,-1,-1,-1,-1,-1,-1,-1,-1,-1,-1,-1,-1,-1,-1,-1,-1,-1,-1,-1,-1,-1,-1,-1,-1,-1,-1,-1,-1,-1,-1,-1,-1,-1,-1,-1,-1,-1,-1,-1,-1,-1,-1,-1,-1,-1,-1,-1,-1,-1,-1,-1,-1,-1,-1,-1,-1,-1,-1,-1,-1,-1,-1,-1],"split_conditions":[5E0,2E0,7.317073E-2,4.2264152E-1,4.5454547E-1,1.5E1,1.5E-1,2.5E-1,2E0,6.151207E-1,4.985591E-1,2E0,3.125E-2,4.3870968E-1,8E0,2E1,2E0,7.2321033E-1,6.126755E-1,1.25E-1,6.2339056E-1,7.154451E-1,3E0,5.110132E-1,6.0421056E-1,3.2E1,4.5454547E-2,5.588235E-1,8E0,4.814815E-1,1.5E1,2E0,3E0,7E0,1.3043478E-1,2E-1,8.32555E-1,3E0,3E0,3.9795917E-1,5.3333336E-1,3E0,3E0,2.0454545E-1,2.5E0,7.5E-1,6.236842E0,2.7272728E-1,8E0,5.055115E-1,8E0,5.3746307E-1,1.4925373E-2,4.5837146E-1,5.5265343E-1,2.18107E-1,1.2E1,2E0,1.7E1,5.444331E-1,8.076923E0,2.5E1,2.2E1,-4.7349665E-2,-6.918047E-2,4.2755883E-2,-4.7874346E-2,1.3711176E-2,-2.1480983E-2,-4.6256255E-2,-3.0921552E-2,-2.117505E-4,2.6558548E-2,5.455023E-2,1.056533E-1,-5.370784E-3,-2.4014672E-2,1.7471418E-2,-2.550227E-3,-2.7730558E-2,5.0094696E-3,1.540283E-2,3.909265E-2,4.0724315E-2,1.9025614E-2,6.534365E-2,3.623924E-2,1.7388513E-2,4.83212E-2,8.7476276E-2,6.365038E-2,7.17349E-2,9.588259E-2,7.1612395E-2,3.1866707E-2,-8.087677E-2,-6.3952036E-2,-3.5521507E-2,-5.544963E-2,-5.6575608E-2,-3.5913955E-2,-1.29200695E-2,-3.131038E-2,-8.35893E-2,-7.439345E-2,-9.3505114E-2,-8.587353E-2,-8.116314E-2,-7.243898E-2,-7.0738345E-2,-6.1270326E-2,-8.281941E-2,-5.7356294E-2,-2.1615965E-2,-5.4789305E-2,-3.109683E-2,9.880903E-5,-3.6772322E-2,-5.9792973E-2,-3.3348702E-2,-8.198651E-3,2.9369835E-2,4.3078936E-3,-3.2478236E-2,-7.04861E-3,-4.4483475E-2,-6.940939E-2],"split_indices":[3,0,1,9,1,3,1,9,3,9,7,0,1,9,3,11,3,9,9,1,7,9,3,9,7,3,1,7,3,7,3,3,3,11,1,7,9,3,3,9,7,3,3,7,2,1,6,9,3,9,3,9,1,9,9,9,3,0,3,9,6,5,3,0,0,0,0,0,0,0,0,0,0,0,0,0,0,0,0,0,0,0,0,0,0,0,0,0,0,0,0,0,0,0,0,0,0,0,0,0,0,0,0,0,0,0,0,0,0,0,0,0,0,0,0,0,0,0,0,0,0,0,0,0,0,0,0],"split_type":[0,0,0,0,0,0,0,0,0,0,0,0,0,0,0,0,0,0,0,0,0,0,0,0,0,0,0,0,0,0,0,0,0,0,0,0,0,0,0,0,0,0,0,0,0,0,0,0,0,0,0,0,0,0,0,0,0,0,0,0,0,0,0,0,0,0,0,0,0,0,0,0,0,0,0,0,0,0,0,0,0,0,0,0,0,0,0,0,0,0,0,0,0,0,0,0,0,0,0,0,0,0,0,0,0,0,0,0,0,0,0,0,0,0,0,0,0,0,0,0,0,0,0,0,0,0,0],"sum_hessian":[4.47816E5,2.8346628E5,1.6434973E5,1.0189902E5,1.8156727E5,8.804292E4,7.6306805E4,2.0355238E4,8.154379E4,1.2743084E5,5.4136418E4,4.2486156E4,4.555677E4,4.8772977E4,2.7533826E4,5.436444E3,1.4918795E4,3.0296502E4,5.1247285E4,6.103903E4,6.639181E4,2.5490428E4,2.8645988E4,3.4628984E4,7.8571733E3,2.3398096E4,2.2158674E4,1.0270927E4,3.8502047E4,1.7722367E4,9.811459E3,5.2990083E3,1.374357E2,4.892408E3,1.0026387E4,2.6215836E4,4.080665E3,2.7645732E4,2.3601553E4,1.3406231E4,4.76328E4,4.2385293E4,2.4006521E4,1.7454877E4,8.0355522E3,2.5671244E4,2.9747444E3,1.612896E4,1.8500023E4,2.1962012E3,5.660972E3,1.06898125E4,1.2708283E4,1.1617654E4,1.0541019E4,7.5794717E3,2.6914553E3,1.8300535E4,2.0201512E4,7.7115557E3,1.00108125E4,7.7582656E3,2.0531929E3,1.570238E3,3.72877E3,9.1914825E1,4.5520874E1,1.1897094E3,3.702699E3,5.534933E3,4.491453E3,6.576539E3,1.9639297E4,3.589696E3,4.9096893E2,1.079033E4,1.6855402E4,9.628333E3,1.3973219E4,2.581244E3,1.0824988E4,2.6294762E4,2.133804E4,3.0667232E4,1.171806E4,1.756918E4,6.437343E3,2.5756826E3,1.4879193E4,1.989246E3,6.046306E3,1.887576E4,6.795486E3,2.9835123E2,2.6763933E3,4.0215981E3,1.2107361E4,6.259355E3,1.2240668E4,7.812461E2,1.4149551E3,2.295769E3,3.3652031E3,5.9995635E3,4.690249E3,4.085769E3,8.622514E3,3.767989E3,7.849666E3,5.0968774E3,5.4441416E3,1.4034666E3,6.1760054E3,1.8015863E3,8.8986896E2,1.2302339E4,5.9981963E3,1.5856344E4,4.3451685E3,2.6614473E3,5.0501084E3,2.5806138E3,7.4301987E3,4.558026E3,3.20024E3,1.3589839E3,6.94209E2],"tree_param":{"num_deleted":"0","num_feature":"15","num_nodes":"127","size_leaf_vector":"1"}},{"base_weights":[-1.4132973E-2,2.2589105E-1,-4.5054445E-1,-3.1681746E-2,3.6715835E-1,-2.755905E-1,-6.5186626E-1,-3.4071344E-1,5.380087E-2,2.9206103E-1,6.179684E-1,-4.3624806E-1,-7.9738714E-2,-7.554532E-1,-5.119207E-1,-5.440057E-1,-2.5045398E-1,1.611553E-1,-1.275633E-1,4.004339E-1,1.922745E-1,7.1810734E-1,4.1087717E-1,-5.325883E-1,-2.8831065E-1,-1.8257192E-1,6.490199E-2,-8.0045485E-1,-6.197782E-1,-5.7226104E-1,-3.3922583E-1,-3.525615E-1,-6.2793833E-1,-9.088982E-2,-3.3185244E-1,5.8966853E-2,2.885047E-1,-1.5979144E-1,1.4761229E-1,1.9930665E-1,4.4458804E-1,1.0742128E-1,3.263634E-1,6.4820695E-1,1.0076046E0,6.063858E-1,3.3267295E-1,-6.6676736E-1,-4.7087896E-1,-3.3650023E-1,-2.8679075E-2,-8.602972E-2,-2.743286E-1,1.4389256E-1,-2.5134876E-2,-7.347822E-1,-8.649642E-1,-5.66732E-1,-7.589173E-1,-6.659396E-1,-5.1837254E-1,-2.9743832E-1,-5.600965E-1,2.639082E-2,-4.0286716E-2,-7.545553E-2,-5.438581E-2,1.746014E-2,-1.8662687E-2,-4.5453887E-2,-2.7634371E-2,-1.0960178E-2,1.1733008E-2,1.4062121E-2,3.615872E-2,-2.2181509E-2,-7.048499E-3,5.069512E-3,3.2411557E-2,-1.345936E-3,2.5537461E-2,4.1525315E-2,6.780439E-2,2.5748804E-3,2.352195E-2,2.9179854E-2,5.2354246E-2,4.644312E-2,7.00792E-2,9.3145736E-2,1.1469089E-1,5.2862823E-2,8.399939E-2,4.2080056E-2,1.9910412E-2,-8.470966E-2,-6.236756E-2,-3.849049E-2,-5.468859E-2,-2.6095092E-2,-4.0405855E-2,4.6435534E-3,-1.8113364E-2,-2.8962305E-2,-5.1717944E-3,-3.220221E-2,-6.3259746E-3,2.6138807E-2,8.001368E-3,3.84437E-6,-2.8798407E-2,-7.559349E-2,-5.5997442E-2,-9.019946E-2,-8.1361085E-2,-6.1446972E-2,-4.7214713E-2,-7.922261E-2,-6.468963E-2,-7.231804E-2,-5.776268E-2,-4.290877E-2,-7.115089E-2,-3.2425962E-2,4.751795E-3,-4.8529953E-2,-7.528722E-2],"categories":[],"categories_nodes":[],"categories_segments":[],"categories_sizes":[],"default_left":[0,0,0,0,0,0,0,0,0,0,0,0,0,0,0,0,0,0,0,0,0,0,0,0,0,0,0,0,0,0,0,0,0,0,0,0,0,0,0,0,0,0,0,0,0,0,0,0,0,0,0,0,0,0,0,0,0,0,0,0,0,0,0,0,0,0,0,0,0,0,0,0,0,0,0,0,0,0,0,0,0,0,0,0,0,0,0,0,0,0,0,0,0,0,0,0,0,0,0,0,0,0,0,0,0,0,0,0,0,0,0,0,0,0,0,0,0,0,0,0,0,0,0,0,0,0,0],"id":11,"left_children":[1,3,5,7,9,11,13,15,17,19,21,23,25,27,29,31,33,35,37,39,41,43,45,47,49,51,53,55,57,59,61,63,65,67,69,71,73,75,77,79,81,83,85,87,89,91,93,95,97,99,101,103,105,107,109,111,113,115,117,119,121,123,125,-1,-1,-1,-1,-1,-1,-1,-1,-1,-1,-1,-1,-1,-1,-1,-1,-1,-1,-1,-1,-1,-1,-1,-1,-1,-1,-1,-1,-1,-1,-1,-1,-1,-1,-1,-1,-1,-1,-1,-1,-1,-1,-1,-1,-1,-1,-1,-1,-1,-1,-1,-1,-1,-1,-1,-1,-1,-1,-1,-1,-1,-1,-1,-1],"loss_changes":[4.647386E4,1.041525E4,5.5448105E3,2.6782935E3,3.4815762E3,2.6503462E3,1.0607305E3,4.0295728E2,1.5463102E3,1.5383545E3,8.830166E2,6.593545E2,5.646209E2,2.563125E2,3.242788E2,1.0830078E2,1.9759064E2,6.492129E2,2.61913E2,6.055283E2,8.4268335E2,5.803135E2,2.1210254E2,2.317168E2,2.2835059E2,1.9651361E2,1.1219091E2,1.331582E2,7.6926025E1,1.1613623E2,7.427124E1,6.401477E1,4.9561646E1,1.3070811E2,6.8487915E1,2.7233203E2,2.3998474E2,1.4641156E2,5.2953026E1,1.464718E2,3.826709E2,4.7347192E2,1.9548315E2,2.2318652E2,5.8144043E1,7.159949E1,1.1669055E2,6.8051025E1,1.2524365E2,7.846802E1,3.274215E1,7.551954E1,1.14484924E2,6.304544E1,4.8782444E1,5.7467773E1,2.9551758E1,3.3988525E1,1.027063E1,4.2159424E1,2.5236133E2,6.2783142E1,1.8119537E1,0E0,0E0,0E0,0E0,0E0,0E0,0E0,0E0,0E0,0E0,0E0,0E0,0E0,0E0,0E0,0E0,0E0,0E0,0E0,0E0,0E0,0E0,0E0,0E0,0E0,0E0,0E0,0E0,0E0,0E0,0E0,0E0,0E0,0E0,0E0,0E0,0E0,0E0,0E0,0E0,0E0,0E0,0E0,0E0,0E0,0E0,0E0,0E0,0E0,0E0,0E0,0E0,0E0,0E0,0E0,0E0,0E0,0E0,0E0,0E0,0E0,0E0,0E0,0E0],"parents":[2147483647,0,0,1,1,2,2,3,3,4,4,5,5,6,6,7,7,8,8,9,9,10,10,11,11,12,12,13,13,14,14,15,15,16,16,17,17,18,18,19,19,20,20,21,21,22,22,23,23,24,24,25,25,26,26,27,27,28,28,29,29,30,30,31,31,32,32,33,33,34,34,35,35,36,36,37,37,38,38,39,39,40,40,41,41,42,42,43,43,44,44,45,45,46,46,47,47,48,48,49,49,50,50,51,51,52,52,53,53,54,54,55,55,56,56,57,57,58,58,59,59,60,60,61,61,62,62],"right_children":[2,4,6,8,10,12,14,16,18,20,22,24,26,28,30,32,34,36,38,40,42,44,46,48,50,52,54,56,58,60,62,64,66,68,70,72,74,76,78,80,82,84,86,88,90,92,94,96,98,100,102,104,106,108,110,112,114,116,118,120,122,124,126,-1,-1,-1,-1,-1,-1,-1,-1,-1,-1,-1,-1,-1,-1,-1,-1,-1,-1,-1,-1,-1,-1,-1,-1,-1,-1,-1,-1,-1,-1,-1,-1,-1,-1,-1,-1,-1,-1,-1,-1,-1,-1,-1,-1,-1,-1,-1,-1,-1,-1,-1,-1,-1,-1,-1,-1,-1,-1,-1,-1,-1,-1,-1,-1],"split_conditions":[5E0,2E0,1.1E1,4.4061816E-1,3E0,2E0,4.918033E-2,2.7906978E-1,3E0,2E0,2E0,6.575E3,4E0,1.1747E4,1.8906E4,2E0,2E0,6.262641E-1,7.2846E4,5.141643E-1,6.5375125E-1,7.2727275E-1,1E1,3.8566226E-1,7.2846E4,7E0,7E0,2.4E1,3.4E1,2E0,2.4E1,5E0,1.7538461E-1,7E0,7.8947365E-2,2E-1,2.3232323E-1,1.5E-1,1.724138E-1,3.604651E-1,7.777039E-1,4E0,7.351225E-1,3.75E-1,7E0,7.3647493E-1,3E0,1.6229282E-1,7E0,7E0,8E0,4.2012987E-1,3.8001E4,7.7826085E0,4E0,2E0,2.4390243E-2,4.8915E4,6.0621E4,3.279E3,2.1E1,2.41921E5,3.6E1,2.639082E-2,-4.0286716E-2,-7.545553E-2,-5.438581E-2,1.746014E-2,-1.8662687E-2,-4.5453887E-2,-2.7634371E-2,-1.0960178E-2,1.1733008E-2,1.4062121E-2,3.615872E-2,-2.2181509E-2,-7.048499E-3,5.069512E-3,3.2411557E-2,-1.345936E-3,2.5537461E-2,4.1525315E-2,6.780439E-2,2.5748804E-3,2.352195E-2,2.9179854E-2,5.2354246E-2,4.644312E-2,7.00792E-2,9.3145736E-2,1.1469089E-1,5.2862823E-2,8.399939E-2,4.2080056E-2,1.9910412E-2,-8.470966E-2,-6.236756E-2,-3.849049E-2,-5.468859E-2,-2.6095092E-2,-4.0405855E-2,4.6435534E-3,-1.8113364E-2,-2.8962305E-2,-5.1717944E-3,-3.220221E-2,-6.3259746E-3,2.6138807E-2,8.001368E-3,3.84437E-6,-2.8798407E-2,-7.559349E-2,-5.5997442E-2,-9.019946E-2,-8.1361085E-2,-6.1446972E-2,-4.7214713E-2,-7.922261E-2,-6.468963E-2,-7.231804E-2,-5.776268E-2,-4.290877E-2,-7.115089E-2,-3.2425962E-2,4.751795E-3,-4.8529953E-2,-7.528722E-2],"split_indices":[3,0,3,9,4,0,1,9,3,3,3,8,0,8,8,3,3,9,8,9,9,7,6,9,8,3,3,3,3,0,3,11,9,11,1,7,7,1,1,9,9,0,7,7,4,9,3,9,3,3,3,9,8,6,4,0,1,8,8,8,3,8,3,0,0,0,0,0,0,0,0,0,0,0,0,0,0,0,0,0,0,0,0,0,0,0,0,0,0,0,0,0,0,0,0,0,0,0,0,0,0,0,0,0,0,0,0,0,0,0,0,0,0,0,0,0,0,0,0,0,0,0,0,0,0,0,0],"split_type":[0,0,0,0,0,0,0,0,0,0,0,0,0,0,0,0,0,0,0,0,0,0,0,0,0,0,0,0,0,0,0,0,0,0,0,0,0,0,0,0,0,0,0,0,0,0,0,0,0,0,0,0,0,0,0,0,0,0,0,0,0,0,0,0,0,0,0,0,0,0,0,0,0,0,0,0,0,0,0,0,0,0,0,0,0,0,0,0,0,0,0,0,0,0,0,0,0,0,0,0,0,0,0,0,0,0,0,0,0,0,0,0,0,0,0,0,0,0,0,0,0,0,0,0,0,0,0],"sum_hessian":[4.4366572E5,2.8623722E5,1.5742848E5,1.0138416E5,1.8485306E5,8.4231484E4,7.319701E4,2.1967082E4,7.941708E4,1.422599E5,4.2593156E4,4.6272688E4,3.7958797E4,4.2060016E4,3.1136992E4,6.752756E3,1.5214325E4,4.988744E4,2.9529637E4,6.819449E4,7.4065414E4,2.8708635E4,1.3884524E4,2.8021707E4,1.8250982E4,2.2185566E4,1.5773229E4,3.1580342E4,1.0479673E4,2.3072902E4,8.06409E3,2.0597708E3,4.6929854E3,5.140196E3,1.007413E4,2.7678756E4,2.2208688E4,2.643413E4,3.095506E3,1.2276969E4,5.5917523E4,4.536173E4,2.8703688E4,2.3127611E4,5.581023E3,3.965104E3,9.91942E3,8.824395E3,1.9197312E4,1.5393531E4,2.857451E3,1.0811812E4,1.1373756E4,8.401703E3,7.3715254E3,1.5655218E4,1.5925124E4,7.5907876E3,2.8888853E3,8.421604E3,1.46513E4,6.7831104E3,1.2809795E3,1.5508151E2,1.9046892E3,1.8695874E3,2.8233977E3,1.3620981E3,3.778098E3,3.1359053E3,6.938224E3,7.1183047E3,2.0560451E4,7.3462876E3,1.4862399E4,1.559905E4,1.083508E4,1.9990977E3,1.0964084E3,2.560641E3,9.716327E3,4.9678016E4,6.2395107E3,2.7675957E4,1.7685771E4,2.4424607E4,4.27908E3,5.147569E3,1.7980043E4,3.6134841E3,1.9675388E3,2.9773433E3,9.877608E2,5.97501E3,3.94441E3,1.6983834E3,7.126011E3,9.01087E3,1.0186441E4,7.2692827E3,8.1242485E3,1.9147473E3,9.427037E2,1.5582565E3,9.253555E3,9.276985E3,2.0967698E3,2.9579365E3,5.443766E3,6.7281626E3,6.4336273E2,1.3962377E4,1.6928412E3,9.2433E3,6.681825E3,5.0410386E3,2.549749E3,2.222087E3,6.667983E2,5.1053438E3,3.3162595E3,1.002163E4,4.629669E3,6.2938096E3,4.8930063E2,9.254301E2,3.555494E2],"tree_param":{"num_deleted":"0","num_feature":"15","num_nodes":"127","size_leaf_vector":"1"}},{"base_weights":[-1.3021499E-2,1.7847891E-1,-4.7572163E-1,-5.59115E-2,3.118223E-1,-3.396175E-1,-6.775855E-1,-3.679057E-1,1.725349E-2,4.4156492E-1,1.8437803E-1,-4.8413134E-1,-1.5539165E-1,-7.502644E-1,-5.5218726E-1,-5.7132584E-1,-2.9413122E-1,1.4015695E-1,-1.4648004E-1,2.9759398E-1,5.6330454E-1,1.03217766E-1,3.210084E-1,-5.590027E-1,-3.0293623E-1,-2.4237588E-1,-2.5220716E-2,-7.9314935E-1,-5.816425E-1,-4.5244342E-1,-7.1670973E-1,2.4738435E-1,-5.9176654E-1,-1.2708718E-1,-3.646859E-1,1.0619696E-1,4.390506E-1,-2.1101731E-1,-4.2421496E-3,1.3193607E0,2.7847594E-1,4.9504405E-1,7.951743E-1,-3.5802948E-1,1.2987465E-1,-1.5940803E-1,3.4542656E-1,-7.532729E-1,-5.302338E-1,-3.5662416E-1,-9.353866E-2,-2.907158E-1,-8.5503675E-2,-5.832312E-1,-1.2675768E-2,-7.2969157E-1,-8.607019E-1,-5.039733E-1,-6.7367965E-1,-5.213203E-1,-3.333424E-1,-7.559035E-1,-5.8585566E-1,1.2651305E-1,-8.859708E-2,-6.1132092E-2,1.6587278E-2,1.318483E-1,-1.8100893E-2,-2.1969022E-2,-4.0578946E-2,-4.6182307E-3,1.6114213E-2,3.7357345E-2,7.8957856E-2,-5.5444892E-2,-1.931097E-2,-4.0917085E-3,2.751707E-2,4.829269E-2,1.588649E-1,-7.844775E-3,3.5049323E-2,5.659018E-2,3.4211364E-2,4.059499E-2,8.7190025E-2,-7.291315E-2,-2.3201399E-2,-6.2830583E-3,1.7458336E-2,-4.8741773E-2,2.791622E-3,3.0171609E-2,5.2740928E-2,-8.4011726E-2,-6.89263E-2,-4.5305025E-2,-5.794234E-2,-2.9511256E-2,-4.3317292E-2,-1.43970195E-2,1.13155125E-2,-1.8598562E-2,-3.6423147E-2,-3.8560197E-2,-6.1368193E-3,-7.7345364E-2,-1.7428935E-2,-7.1963444E-3,8.229694E-3,-7.902391E-2,-6.739564E-2,-8.3584115E-2,-9.2829615E-2,-5.4208755E-2,-2.498099E-2,-6.304493E-2,-7.730817E-2,-4.3809444E-2,-5.7412297E-2,-3.5092566E-2,-3.957677E-3,-7.181042E-2,-8.41378E-2,-4.9844302E-2,-6.8277694E-2],"categories":[],"categories_nodes":[],"categories_segments":[],"categories_sizes":[],"default_left":[0,0,0,0,0,0,0,0,0,0,0,0,0,0,0,0,0,0,0,0,0,0,0,0,0,0,0,0,0,0,0,0,0,0,0,0,0,0,0,0,0,0,0,0,0,0,0,0,0,0,0,0,0,0,0,0,0,0,0,0,0,0,0,0,0,0,0,0,0,0,0,0,0,0,0,0,0,0,0,0,0,0,0,0,0,0,0,0,0,0,0,0,0,0,0,0,0,0,0,0,0,0,0,0,0,0,0,0,0,0,0,0,0,0,0,0,0,0,0,0,0,0,0,0,0,0,0],"id":12,"left_children":[1,3,5,7,9,11,13,15,17,19,21,23,25,27,29,31,33,35,37,39,41,43,45,47,49,51,53,55,57,59,61,63,65,67,69,71,73,75,77,79,81,83,85,87,89,91,93,95,97,99,101,103,105,107,109,111,113,115,117,119,121,123,125,-1,-1,-1,-1,-1,-1,-1,-1,-1,-1,-1,-1,-1,-1,-1,-1,-1,-1,-1,-1,-1,-1,-1,-1,-1,-1,-1,-1,-1,-1,-1,-1,-1,-1,-1,-1,-1,-1,-1,-1,-1,-1,-1,-1,-1,-1,-1,-1,-1,-1,-1,-1,-1,-1,-1,-1,-1,-1,-1,-1,-1,-1,-1,-1],"loss_changes":[3.8960527E4,9.71978E3,3.5360293E3,2.5741653E3,3.277502E3,2.0466924E3,4.7197656E2,3.2130835E2,1.8382427E3,1.7214082E3,1.1088428E3,5.843037E2,3.826772E2,2.368086E2,3.118335E2,9.553967E1,1.8525244E2,5.2960486E2,3.595492E2,8.787715E2,8.419492E2,7.714E2,4.3719604E2,1.6997754E2,1.4160742E2,1.5360583E2,9.476946E1,1.1149414E2,4.7244385E1,9.699658E1,3.637085E1,1.6209337E2,8.249805E1,3.642737E2,6.578516E1,3.9232422E2,1.2188684E2,1.6559521E2,1.252959E2,1.853606E2,1.1356562E3,4.4538184E2,3.6107178E2,1.6013177E2,5.1098737E2,1.10803444E2,2.819253E2,2.1265625E1,1.0055957E2,4.7088867E1,2.6831335E1,1.1916882E2,3.455256E1,2.3020622E1,7.457045E1,4.5001953E1,2.0503906E1,3.487439E1,1.2590942E1,3.27218E1,2.2419128E1,1.7230713E1,1.3713928E1,0E0,0E0,0E0,0E0,0E0,0E0,0E0,0E0,0E0,0E0,0E0,0E0,0E0,0E0,0E0,0E0,0E0,0E0,0E0,0E0,0E0,0E0,0E0,0E0,0E0,0E0,0E0,0E0,0E0,0E0,0E0,0E0,0E0,0E0,0E0,0E0,0E0,0E0,0E0,0E0,0E0,0E0,0E0,0E0,0E0,0E0,0E0,0E0,0E0,0E0,0E0,0E0,0E0,0E0,0E0,0E0,0E0,0E0,0E0,0E0,0E0,0E0,0E0,0E0],"parents":[2147483647,0,0,1,1,2,2,3,3,4,4,5,5,6,6,7,7,8,8,9,9,10,10,11,11,12,12,13,13,14,14,15,15,16,16,17,17,18,18,19,19,20,20,21,21,22,22,23,23,24,24,25,25,26,26,27,27,28,28,29,29,30,30,31,31,32,32,33,33,34,34,35,35,36,36,37,37,38,38,39,39,40,40,41,41,42,42,43,43,44,44,45,45,46,46,47,47,48,48,49,49,50,50,51,51,52,52,53,53,54,54,55,55,56,56,57,57,58,58,59,59,60,60,61,61,62,62],"right_children":[2,4,6,8,10,12,14,16,18,20,22,24,26,28,30,32,34,36,38,40,42,44,46,48,50,52,54,56,58,60,62,64,66,68,70,72,74,76,78,80,82,84,86,88,90,92,94,96,98,100,102,104,106,108,110,112,114,116,118,120,122,124,126,-1,-1,-1,-1,-1,-1,-1,-1,-1,-1,-1,-1,-1,-1,-1,-1,-1,-1,-1,-1,-1,-1,-1,-1,-1,-1,-1,-1,-1,-1,-1,-1,-1,-1,-1,-1,-1,-1,-1,-1,-1,-1,-1,-1,-1,-1,-1,-1,-1,-1,-1,-1,-1,-1,-1,-1,-1,-1,-1,-1,-1,-1,-1,-1],"split_conditions":[6E0,2E0,1.4E1,4.2012987E-1,2E0,2E0,2E0,2.5E-1,3E0,2E0,5E0,1.1238E4,4E0,1.4687E4,2.6E1,1E0,2E0,7.41461E-1,6.520087E-1,1E0,6.8546367E-1,3E0,2E0,2.6143792E-1,7.2846E4,2.6307E4,1E0,2.4E1,3.7E1,1.2048E4,2.0684E4,2E0,2E1,1E0,6E0,2.0454545E-1,8.32555E-1,3E0,1.52657E5,5.542857E0,6E0,3E1,5E0,1E0,4.8059946E-1,1E0,1.4E1,1.6229282E-1,8E0,1.6E1,2.41921E5,8E0,3E0,6.9E1,4.1E1,1.716E3,4.7E1,1.0006E5,4.3E1,1.7E1,2.41921E5,4.4E1,3.6E1,1.2651305E-1,-8.859708E-2,-6.1132092E-2,1.6587278E-2,1.318483E-1,-1.8100893E-2,-2.1969022E-2,-4.0578946E-2,-4.6182307E-3,1.6114213E-2,3.7357345E-2,7.8957856E-2,-5.5444892E-2,-1.931097E-2,-4.0917085E-3,2.751707E-2,4.829269E-2,1.588649E-1,-7.844775E-3,3.5049323E-2,5.659018E-2,3.4211364E-2,4.059499E-2,8.7190025E-2,-7.291315E-2,-2.3201399E-2,-6.2830583E-3,1.7458336E-2,-4.8741773E-2,2.791622E-3,3.0171609E-2,5.2740928E-2,-8.4011726E-2,-6.89263E-2,-4.5305025E-2,-5.794234E-2,-2.9511256E-2,-4.3317292E-2,-1.43970195E-2,1.13155125E-2,-1.8598562E-2,-3.6423147E-2,-3.8560197E-2,-6.1368193E-3,-7.7345364E-2,-1.7428935E-2,-7.1963444E-3,8.229694E-3,-7.902391E-2,-6.739564E-2,-8.3584115E-2,-9.2829615E-2,-5.4208755E-2,-2.498099E-2,-6.304493E-2,-7.730817E-2,-4.3809444E-2,-5.7412297E-2,-3.5092566E-2,-3.957677E-3,-7.181042E-2,-8.41378E-2,-4.9844302E-2,-6.8277694E-2],"split_indices":[3,0,3,9,3,0,0,9,3,4,0,8,0,8,3,14,3,9,9,14,7,14,14,9,8,8,14,3,5,8,8,3,11,14,5,7,9,14,8,6,14,14,14,14,9,14,0,9,3,5,8,3,14,5,5,8,3,8,3,3,8,3,3,0,0,0,0,0,0,0,0,0,0,0,0,0,0,0,0,0,0,0,0,0,0,0,0,0,0,0,0,0,0,0,0,0,0,0,0,0,0,0,0,0,0,0,0,0,0,0,0,0,0,0,0,0,0,0,0,0,0,0,0,0,0,0,0],"split_type":[0,0,0,0,0,0,0,0,0,0,0,0,0,0,0,0,0,0,0,0,0,0,0,0,0,0,0,0,0,0,0,0,0,0,0,0,0,0,0,0,0,0,0,0,0,0,0,0,0,0,0,0,0,0,0,0,0,0,0,0,0,0,0,0,0,0,0,0,0,0,0,0,0,0,0,0,0,0,0,0,0,0,0,0,0,0,0,0,0,0,0,0,0,0,0,0,0,0,0,0,0,0,0,0,0,0,0,0,0,0,0,0,0,0,0,0,0,0,0,0,0,0,0,0,0,0,0],"sum_hessian":[4.3969706E5,3.1098747E5,1.28709586E5,1.127669E5,1.9822056E5,7.687816E4,5.1831434E4,2.1420479E4,9.134642E4,9.822337E4,9.99972E4,4.3081633E4,3.3796523E4,3.281018E4,1.9021254E4,5.6991987E3,1.572128E4,5.2179223E4,3.9167195E4,4.500421E4,5.3219156E4,6.273408E4,3.726312E4,3.0483508E4,1.2598125E4,